{"type":"LSTM","options":{"inputSize":30,"inputRange":30,"hiddenLayers":[20,20],"outputSize":30,"decayRate":0.999,"smoothEps":1e-8,"regc":0.000001,"clipval":5,"maxPredictionLength":100,"dataFormatter":{"values":["Minsk","Insk","Mnsk","Misk","Mink","Mins","Orsha","Rsha","Osha","Orha","Orsa","Orsh","Homel","Omel","Hmel","Hoel","Homl","Home","Vitebsk","Itebsk","Vtebsk","Viebsk","Vitbsk","Vitesk","Vitebk","Vitebs","Paris","Aris","Pris","Pais","Pars","Pari","Moscow","Oscow","Mscow","Mocow","Mosow","Moscw","Mosco","Pekin","Ekin","Pkin","Pein","Pekn","Peki","Brest","Rest","Best","Brst","Bret","Bres","London","Ondon","Lndon","Lodon","Lonon","Londn","Londo","Berlin","Erlin","Brlin","Belin","Berin","Berln","Berli"],"indexTable":{"M":0,"i":1,"n":2,"s":3,"k":4,"I":5,"O":6,"r":7,"h":8,"a":9,"R":10,"H":11,"o":12,"m":13,"e":14,"l":15,"V":16,"t":17,"b":18,"P":19,"A":20,"c":21,"w":22,"E":23,"B":24,"L":25,"d":26,"stop-input":27,"start-output":28,"unrecognized":29},"characterTable":{"0":"M","1":"i","2":"n","3":"s","4":"k","5":"I","6":"O","7":"r","8":"h","9":"a","10":"R","11":"H","12":"o","13":"m","14":"e","15":"l","16":"V","17":"t","18":"b","19":"P","20":"A","21":"c","22":"w","23":"E","24":"B","25":"L","26":"d","27":null,"28":null,"29":null},"characters":["M","i","n","s","k","I","O","r","h","a","R","H","o","m","e","l","V","t","b","P","A","c","w","E","B","L","d","stop-input","start-output","unrecognized"],"specialIndexes":[27,28,29]}},"input":{"rows":31,"columns":30,"weights":{"0":-0.9027112126350403,"1":-1.2560765743255615,"2":1.5427498817443848,"3":-1.039154291152954,"4":0.7113991379737854,"5":-0.14278890192508698,"6":1.8216323852539062,"7":2.1602365970611572,"8":-1.0474834442138672,"9":0.08230536431074142,"10":1.2888263463974,"11":1.9405269622802734,"12":-0.724006175994873,"13":-0.06173333898186684,"14":-2.0130820274353027,"15":1.5571156740188599,"16":-2.500581741333008,"17":-0.7657909393310547,"18":-0.6622816324234009,"19":-3.7911972999572754,"20":2.2520692348480225,"21":0.7835052609443665,"22":-1.1672149896621704,"23":2.5531418323516846,"24":-0.9942102432250977,"25":4.879000186920166,"26":-0.6672882437705994,"27":-0.9155356287956238,"28":1.1683675050735474,"29":-2.608006715774536,"30":2.331284999847412,"31":9.100133895874023,"32":-7.364473342895508,"33":-17.048446655273438,"34":-1.938546061515808,"35":0.08553333580493927,"36":1.9453877210617065,"37":3.495973587036133,"38":0.30496746301651,"39":3.9950382709503174,"40":-0.31821805238723755,"41":-2.8359503746032715,"42":3.532417058944702,"43":0.7089311480522156,"44":-1.5045206546783447,"45":-0.3831765055656433,"46":1.771248698234558,"47":8.566299438476562,"48":2.4173269271850586,"49":-0.3909110426902771,"50":7.036396026611328,"51":-4.458977699279785,"52":-10.19460391998291,"53":-2.742844581604004,"54":3.251976728439331,"55":4.031408309936523,"56":-14.912389755249023,"57":-2.1464993953704834,"58":5.805644989013672,"59":0.1465221494436264,"60":-2.3404793739318848,"61":-2.2409307956695557,"62":7.651185035705566,"63":2.5311331748962402,"64":-2.875608444213867,"65":2.444227933883667,"66":6.930030345916748,"67":9.778847694396973,"68":1.9126737117767334,"69":1.8315883874893188,"70":-6.48844051361084,"71":-3.655629873275757,"72":3.675806999206543,"73":3.2594563961029053,"74":-5.638716697692871,"75":-0.22996068000793457,"76":-1.258287787437439,"77":-3.5287363529205322,"78":-0.047160252928733826,"79":3.6660749912261963,"80":0.9203618168830872,"81":4.61613130569458,"82":2.2628862857818604,"83":5.069810390472412,"84":2.9810845851898193,"85":2.938065767288208,"86":-1.5313657522201538,"87":3.4459445476531982,"88":-2.5762054920196533,"89":-2.438107490539551,"90":1.9205045700073242,"91":-2.313399314880371,"92":3.0125932693481445,"93":-1.1516155004501343,"94":5.024260997772217,"95":4.346915245056152,"96":-3.551442861557007,"97":-2.765631914138794,"98":-2.054675340652466,"99":-1.268736481666565,"100":-2.0488831996917725,"101":-7.487468719482422,"102":-10.82857894897461,"103":2.5265488624572754,"104":-2.6551222801208496,"105":-5.221224784851074,"106":3.1423676013946533,"107":1.914862036705017,"108":3.8907470703125,"109":-0.10757128149271011,"110":3.080305814743042,"111":-2.3842644691467285,"112":13.327746391296387,"113":-9.525918006896973,"114":2.4834043979644775,"115":-4.16094446182251,"116":-4.043221950531006,"117":6.367717266082764,"118":6.105072975158691,"119":-4.395500183105469,"120":-3.5419328212738037,"121":-2.040778875350952,"122":2.233661413192749,"123":2.483473300933838,"124":4.893274784088135,"125":2.0251636505126953,"126":-1.0996959209442139,"127":-2.5849575996398926,"128":1.0448893308639526,"129":-0.12051508575677872,"130":-0.5116702914237976,"131":-0.7125602960586548,"132":-4.153645992279053,"133":1.8623002767562866,"134":-1.7927155494689941,"135":-1.699363112449646,"136":-1.4356870651245117,"137":2.617858409881592,"138":0.27362534403800964,"139":-1.137927770614624,"140":-3.8905832767486572,"141":2.890671968460083,"142":3.569519281387329,"143":3.172666311264038,"144":0.2359870821237564,"145":-1.3933488130569458,"146":0.7365610599517822,"147":1.6016043424606323,"148":-0.6747719645500183,"149":1.281023621559143,"150":-5.739482402801514,"151":-0.05990508943796158,"152":1.757896900177002,"153":-9.620684623718262,"154":-4.224586009979248,"155":-5.18129825592041,"156":0.1576286256313324,"157":-3.5028860569000244,"158":-1.9864041805267334,"159":5.713033199310303,"160":4.671919345855713,"161":1.2500402927398682,"162":3.8438470363616943,"163":-3.5473761558532715,"164":1.8059343099594116,"165":1.9979828596115112,"166":-8.649588584899902,"167":-3.4134676456451416,"168":2.951683282852173,"169":3.409331798553467,"170":7.359808921813965,"171":0.301179975271225,"172":1.1814179420471191,"173":-5.792571544647217,"174":-4.447188854217529,"175":0.7354427576065063,"176":-1.2436022758483887,"177":-1.8952981233596802,"178":-9.661643028259277,"179":1.304519772529602,"180":-4.711512088775635,"181":9.499367713928223,"182":2.5876994132995605,"183":18.15804100036621,"184":0.2630695402622223,"185":7.3512864112854,"186":-11.780961990356445,"187":-6.863905906677246,"188":3.3892343044281006,"189":-4.975315093994141,"190":-18.793731689453125,"191":20.609899520874023,"192":-2.2982895374298096,"193":2.3363819122314453,"194":-16.294870376586914,"195":5.461839199066162,"196":6.567549705505371,"197":9.862881660461426,"198":-16.433269500732422,"199":-3.054025411605835,"200":-10.749771118164062,"201":-10.463675498962402,"202":-25.39411735534668,"203":14.693548202514648,"204":5.527016639709473,"205":-0.4771808683872223,"206":24.82655906677246,"207":-4.931585311889648,"208":14.833089828491211,"209":-1.7211538553237915,"210":-11.2260160446167,"211":11.650402069091797,"212":-3.687901735305786,"213":6.1818976402282715,"214":-12.75851058959961,"215":-3.1188151836395264,"216":8.751213073730469,"217":-4.551279544830322,"218":0.5184189677238464,"219":-18.5439453125,"220":9.00649356842041,"221":-3.9283692836761475,"222":10.626790046691895,"223":2.041745662689209,"224":6.036270618438721,"225":0.8971758484840393,"226":6.177937030792236,"227":-1.7098116874694824,"228":-10.71136474609375,"229":1.6609649658203125,"230":-11.227105140686035,"231":8.039257049560547,"232":-0.2194388210773468,"233":-1.3385748863220215,"234":0.27179837226867676,"235":0.30919697880744934,"236":-1.0176732540130615,"237":6.954854488372803,"238":-4.260261535644531,"239":1.7787612676620483,"240":-2.7895517349243164,"241":1.0477632284164429,"242":1.384402871131897,"243":1.7006235122680664,"244":-3.218712329864502,"245":-0.03458544611930847,"246":2.956779718399048,"247":-2.953620195388794,"248":6.235174179077148,"249":-5.286128044128418,"250":2.2277326583862305,"251":-1.7057816982269287,"252":-2.6292216777801514,"253":-1.5879926681518555,"254":-7.153863430023193,"255":-2.7562379837036133,"256":-0.9294108152389526,"257":-3.4800703525543213,"258":-1.8152838945388794,"259":2.593327283859253,"260":-3.346712589263916,"261":-5.26974630355835,"262":3.0812504291534424,"263":5.638948440551758,"264":5.35935115814209,"265":-2.7833447456359863,"266":4.5281853675842285,"267":8.421210289001465,"268":1.7598565816879272,"269":3.9159066677093506,"270":-6.798035621643066,"271":-4.437783241271973,"272":-5.855401515960693,"273":4.137860298156738,"274":-0.009256676770746708,"275":6.454341888427734,"276":2.1030807495117188,"277":4.799037933349609,"278":-3.5910825729370117,"279":-3.465416431427002,"280":-9.932276725769043,"281":-1.1009809970855713,"282":6.2246575355529785,"283":7.689090728759766,"284":-4.046535491943359,"285":-1.2762713432312012,"286":2.5889432430267334,"287":-6.0647501945495605,"288":7.741426467895508,"289":3.3765769004821777,"290":-10.054304122924805,"291":6.80597448348999,"292":-3.419245719909668,"293":0.8477268815040588,"294":-9.695999145507812,"295":2.6311824321746826,"296":6.42746114730835,"297":-3.4935202598571777,"298":-6.095608711242676,"299":-3.3371546268463135,"300":-3.421253204345703,"301":-0.5957652926445007,"302":-2.804903507232666,"303":2.025656223297119,"304":1.73953378200531,"305":0.6646836400032043,"306":-0.968576967716217,"307":-4.665464878082275,"308":1.3646246194839478,"309":-5.875326156616211,"310":-1.302734136581421,"311":1.6089146137237549,"312":-4.494930267333984,"313":5.898751258850098,"314":1.7954167127609253,"315":1.0072811841964722,"316":1.3578556776046753,"317":-0.5819680094718933,"318":0.18362507224082947,"319":-5.4740891456604,"320":-8.81511402130127,"321":1.1069047451019287,"322":1.1279821395874023,"323":3.3391497135162354,"324":-1.5408059358596802,"325":2.3561201095581055,"326":-0.4251324534416199,"327":4.728505611419678,"328":-3.1493372917175293,"329":1.0920175313949585,"330":5.852411270141602,"331":2.0130362510681152,"332":-9.1488618850708,"333":11.203658103942871,"334":4.785670757293701,"335":-7.743380546569824,"336":16.15095329284668,"337":15.391104698181152,"338":18.335708618164062,"339":-15.293868064880371,"340":13.47635555267334,"341":9.042001724243164,"342":-4.890355110168457,"343":-4.035983562469482,"344":-4.732895851135254,"345":-9.902183532714844,"346":-23.123050689697266,"347":-21.28626251220703,"348":-4.579976558685303,"349":1.9644107818603516,"350":11.707232475280762,"351":-15.418103218078613,"352":-5.660264492034912,"353":11.844840049743652,"354":0.989241898059845,"355":12.39026165008545,"356":-7.838357448577881,"357":3.469223737716675,"358":10.01838207244873,"359":12.417530059814453,"360":-0.1856405884027481,"361":-4.464387893676758,"362":-1.4691869020462036,"363":0.9844483733177185,"364":7.315322399139404,"365":-2.9603781700134277,"366":-5.18786096572876,"367":-3.3281660079956055,"368":3.5998151302337646,"369":2.541785717010498,"370":-0.6550019979476929,"371":10.267212867736816,"372":-11.46729564666748,"373":5.931424617767334,"374":-1.6661185026168823,"375":-8.359184265136719,"376":-2.7738802433013916,"377":-11.090376853942871,"378":-0.2147742062807083,"379":8.355637550354004,"380":5.949533462524414,"381":-3.962902307510376,"382":7.11238956451416,"383":8.346193313598633,"384":-4.197971343994141,"385":1.3386144638061523,"386":-1.089878797531128,"387":-6.893336296081543,"388":-5.807087421417236,"389":-3.3287222385406494,"390":-0.3595728278160095,"391":-1.3366695642471313,"392":-0.9341383576393127,"393":-1.889845848083496,"394":1.521020770072937,"395":-2.486205577850342,"396":-0.7776719331741333,"397":-5.931617736816406,"398":1.7193894386291504,"399":-3.1912171840667725,"400":5.9462103843688965,"401":-1.4004855155944824,"402":-2.7623164653778076,"403":3.5602500438690186,"404":2.5344417095184326,"405":-2.815882921218872,"406":-0.2620249092578888,"407":3.05570125579834,"408":-1.1561371088027954,"409":2.1946732997894287,"410":-2.044942855834961,"411":1.640604019165039,"412":-0.9842953681945801,"413":-2.5637197494506836,"414":-7.331033706665039,"415":-6.43973970413208,"416":1.1422338485717773,"417":-2.2639830112457275,"418":-3.016620635986328,"419":6.078397750854492,"420":-6.527009963989258,"421":-3.3704590797424316,"422":11.846976280212402,"423":5.296963691711426,"424":-1.3277617692947388,"425":5.876835823059082,"426":-1.7629845142364502,"427":-5.675720691680908,"428":-2.4572980403900146,"429":1.6340656280517578,"430":3.1386373043060303,"431":-1.7627180814743042,"432":7.508337020874023,"433":-0.9795982837677002,"434":-4.68417501449585,"435":-0.3813452422618866,"436":-3.5270044803619385,"437":3.856477975845337,"438":8.051308631896973,"439":-2.0343241691589355,"440":-2.52606201171875,"441":-2.485285520553589,"442":0.4341146945953369,"443":-3.224499464035034,"444":-4.891190528869629,"445":-0.5495100617408752,"446":5.600376605987549,"447":0.22700731456279755,"448":-9.998068809509277,"449":-1.7608062028884888,"450":-2.4153621196746826,"451":-0.583280622959137,"452":1.0271276235580444,"453":1.1221446990966797,"454":0.9751664996147156,"455":-0.8712942004203796,"456":2.813699722290039,"457":-0.8057804107666016,"458":-2.8808329105377197,"459":1.9343757629394531,"460":-2.464543342590332,"461":-1.8009949922561646,"462":-1.5145529508590698,"463":3.2203571796417236,"464":-2.1988577842712402,"465":-3.59834361076355,"466":1.315340280532837,"467":1.309435248374939,"468":-2.044003486633301,"469":-0.46170493960380554,"470":3.322871208190918,"471":0.7419363260269165,"472":-5.327387809753418,"473":1.029157042503357,"474":2.702653169631958,"475":-1.1040287017822266,"476":-0.18530972301959991,"477":0.5231874585151672,"478":0.9554126858711243,"479":-0.3727368116378784,"480":-0.7067664861679077,"481":5.52337121963501,"482":0.7263742089271545,"483":8.114447593688965,"484":5.299737453460693,"485":-1.1352065801620483,"486":2.6430342197418213,"487":8.628165245056152,"488":1.5125313997268677,"489":-5.653960227966309,"490":0.23165357112884521,"491":3.0663111209869385,"492":-0.13643878698349,"493":0.35565412044525146,"494":-6.180294036865234,"495":-5.6764068603515625,"496":8.98707103729248,"497":-4.346550941467285,"498":-1.4416594505310059,"499":7.230133056640625,"500":-3.5631725788116455,"501":-4.95471715927124,"502":11.3403959274292,"503":-1.4287278652191162,"504":3.5901577472686768,"505":1.9570610523223877,"506":0.10078073292970657,"507":1.0920989513397217,"508":11.347782135009766,"509":1.4601678848266602,"510":1.168858289718628,"511":10.187448501586914,"512":-0.868200957775116,"513":9.293072700500488,"514":-8.029655456542969,"515":9.745054244995117,"516":2.3723199367523193,"517":6.653027534484863,"518":7.16757869720459,"519":-4.424792289733887,"520":-0.5172389149665833,"521":5.293905258178711,"522":11.650895118713379,"523":-0.8560284972190857,"524":2.506439208984375,"525":7.968835353851318,"526":4.4365763664245605,"527":0.3764256238937378,"528":2.8257031440734863,"529":-3.881244421005249,"530":3.9302263259887695,"531":-2.7632029056549072,"532":-3.057624101638794,"533":2.4623637199401855,"534":3.7672455310821533,"535":4.3920769691467285,"536":-0.36994290351867676,"537":6.267118453979492,"538":2.159473180770874,"539":4.148157119750977,"540":-3.0305378437042236,"541":2.9525349140167236,"542":-8.018444061279297,"543":0.863130509853363,"544":2.115109443664551,"545":-2.2934834957122803,"546":1.767425775527954,"547":-3.630324602127075,"548":2.467991590499878,"549":-11.603261947631836,"550":9.709077835083008,"551":-2.6975204944610596,"552":-5.530605792999268,"553":-5.253471851348877,"554":2.3463046550750732,"555":-4.394716262817383,"556":-3.0128917694091797,"557":5.455805778503418,"558":-3.0888023376464844,"559":2.3700928688049316,"560":-6.121750831604004,"561":-1.9420454502105713,"562":1.2073063850402832,"563":4.131188869476318,"564":3.484252452850342,"565":-3.2078306674957275,"566":-2.9048190116882324,"567":8.055187225341797,"568":3.542069673538208,"569":-2.258652925491333,"570":-8.995393753051758,"571":-2.2383921146392822,"572":0.7277683019638062,"573":1.7463772296905518,"574":-1.3355934619903564,"575":0.5265976190567017,"576":-3.486233949661255,"577":1.4854844808578491,"578":6.0123724937438965,"579":-4.110691070556641,"580":-6.474419593811035,"581":-6.370494365692139,"582":15.050519943237305,"583":10.318204879760742,"584":-0.5585682988166809,"585":-3.2679107189178467,"586":0.43607425689697266,"587":2.047189235687256,"588":14.477190017700195,"589":-2.665714979171753,"590":-5.346258640289307,"591":-4.592791557312012,"592":-6.930521488189697,"593":0.8100807070732117,"594":0.5320385098457336,"595":2.4420382976531982,"596":6.345457553863525,"597":-7.85615873336792,"598":-3.0140058994293213,"599":7.564690589904785,"600":-2.579629421234131,"601":-3.8295438289642334,"602":3.314610004425049,"603":-1.074232816696167,"604":10.752967834472656,"605":0.3788272440433502,"606":4.593568801879883,"607":3.628016471862793,"608":1.677206039428711,"609":5.257225036621094,"610":4.1275153160095215,"611":-1.5684059858322144,"612":8.564558982849121,"613":2.778367042541504,"614":-4.2782392501831055,"615":8.292546272277832,"616":3.998049020767212,"617":-4.883100509643555,"618":10.114493370056152,"619":-3.5713653564453125,"620":-2.258558750152588,"621":-2.185520648956299,"622":-6.94770622253418,"623":-8.224244117736816,"624":-7.577107906341553,"625":-0.538260817527771,"626":2.3149189949035645,"627":-1.6657456159591675,"628":1.8547219038009644,"629":-5.7383222579956055,"630":15.763919830322266,"631":13.353074073791504,"632":13.29610538482666,"633":-0.26478704810142517,"634":-16.24985694885254,"635":-4.974306583404541,"636":22.128189086914062,"637":18.902538299560547,"638":8.29785442352295,"639":11.697867393493652,"640":-6.012563705444336,"641":16.597850799560547,"642":42.39622497558594,"643":-29.75431251525879,"644":-0.36676543951034546,"645":20.008140563964844,"646":7.3212761878967285,"647":-0.10457774251699448,"648":-19.23044776916504,"649":-10.290517807006836,"650":-28.286935806274414,"651":0.5720351338386536,"652":7.364621162414551,"653":-6.79542350769043,"654":-7.037870407104492,"655":6.083315372467041,"656":3.8974926471710205,"657":8.41009521484375,"658":13.116004943847656,"659":-24.840559005737305,"660":-5.2683186531066895,"661":-1.9818353652954102,"662":2.3834238052368164,"663":1.6742424964904785,"664":-6.939589977264404,"665":6.468575954437256,"666":0.8031841516494751,"667":2.126730442047119,"668":-3.8907835483551025,"669":-0.4144825339317322,"670":0.511956512928009,"671":2.2572827339172363,"672":4.291271209716797,"673":-5.257739067077637,"674":-0.6197354793548584,"675":-6.553572177886963,"676":6.277740478515625,"677":5.312486171722412,"678":-3.377272844314575,"679":7.07972526550293,"680":5.409596920013428,"681":7.412715435028076,"682":-2.1170780658721924,"683":0.7183813452720642,"684":0.927972674369812,"685":-6.869366645812988,"686":10.145835876464844,"687":0.5975638031959534,"688":0.8690026998519897,"689":-1.3411115407943726,"690":-2.2354934215545654,"691":-5.077847003936768,"692":-7.110754013061523,"693":-4.405303478240967,"694":2.1845011711120605,"695":-9.06001091003418,"696":0.6588543653488159,"697":11.497129440307617,"698":-6.238975524902344,"699":6.2498674392700195,"700":12.409748077392578,"701":9.797550201416016,"702":9.53286075592041,"703":0.6188576221466064,"704":2.414949417114258,"705":4.51485013961792,"706":3.6009442806243896,"707":-4.656436920166016,"708":6.496114730834961,"709":4.654956340789795,"710":1.4738256931304932,"711":4.926670074462891,"712":-1.3135277032852173,"713":-4.517733573913574,"714":-3.58272123336792,"715":-0.6077024340629578,"716":-8.103361129760742,"717":-1.2205865383148193,"718":0.7254559397697449,"719":1.6237690448760986,"720":-9.438491821289062,"721":14.003788948059082,"722":-18.404504776000977,"723":4.144518852233887,"724":-9.270949363708496,"725":-7.980844497680664,"726":-13.349459648132324,"727":-0.35341060161590576,"728":11.247907638549805,"729":8.665599822998047,"730":-30.009801864624023,"731":-5.395246982574463,"732":-0.797886848449707,"733":3.530400276184082,"734":-24.37424087524414,"735":-3.709010124206543,"736":2.0792927742004395,"737":-0.4885328412055969,"738":-4.890370845794678,"739":-28.51616668701172,"740":-28.70862579345703,"741":-2.8424246311187744,"742":-6.786899566650391,"743":18.102224349975586,"744":-13.272485733032227,"745":19.086423873901367,"746":5.1351823806762695,"747":-2.6605494022369385,"748":9.122269630432129,"749":7.3646135330200195,"750":-1.101556658744812,"751":5.762166976928711,"752":-2.115628719329834,"753":0.8943568468093872,"754":5.407587051391602,"755":-3.008479356765747,"756":3.3652236461639404,"757":-1.8688479661941528,"758":3.5616743564605713,"759":-7.50076150894165,"760":-0.0647239163517952,"761":4.217632293701172,"762":-0.9128373265266418,"763":0.45977744460105896,"764":2.1733131408691406,"765":-1.314060091972351,"766":2.740520477294922,"767":2.766528844833374,"768":0.6405484080314636,"769":0.9080193042755127,"770":-0.30806657671928406,"771":0.05854899436235428,"772":1.8820611238479614,"773":2.9964871406555176,"774":-0.7385566830635071,"775":-0.7105360627174377,"776":1.4987117052078247,"777":1.6301791667938232,"778":-0.33077844977378845,"779":1.4559743404388428,"780":-0.7960485816001892,"781":2.214217185974121,"782":-1.7887349128723145,"783":-6.880781650543213,"784":0.5171896815299988,"785":-2.007689952850342,"786":-5.541990756988525,"787":-0.8829587697982788,"788":0.9211841225624084,"789":1.6142839193344116,"790":0.6455882787704468,"791":-5.484153747558594,"792":0.7117634415626526,"793":5.398812770843506,"794":-0.201764315366745,"795":-2.54425048828125,"796":-2.011277675628662,"797":5.340720176696777,"798":2.3921618461608887,"799":-0.2817966043949127,"800":-2.9011876583099365,"801":1.9659186601638794,"802":0.41122329235076904,"803":-1.7312167882919312,"804":2.109727144241333,"805":-2.719433069229126,"806":-5.096712112426758,"807":0.5546247363090515,"808":0.5289590358734131,"809":7.606941223144531,"810":-6.056100845336914,"811":-5.303494453430176,"812":1.2375750541687012,"813":1.2115883827209473,"814":4.858105182647705,"815":3.5354771614074707,"816":0.24920083582401276,"817":-1.5254284143447876,"818":-3.781123399734497,"819":2.2527410984039307,"820":-2.3898253440856934,"821":-8.56895637512207,"822":3.3154842853546143,"823":-2.6919541358947754,"824":0.4151979982852936,"825":7.683557987213135,"826":5.118172645568848,"827":-0.35116007924079895,"828":6.898083686828613,"829":-6.576927661895752,"830":2.300802707672119,"831":7.929912567138672,"832":-0.341709166765213,"833":-1.9444655179977417,"834":0.16697686910629272,"835":1.9812302589416504,"836":-3.02103328704834,"837":3.538264751434326,"838":-1.0294544696807861,"839":-3.0161828994750977,"840":-0.11340568959712982,"841":-5.673343658447266,"842":-0.39511385560035706,"843":-0.8261245489120483,"844":-0.7422800660133362,"845":-3.9374008178710938,"846":-3.195087194442749,"847":-1.7424736022949219,"848":-1.7463209629058838,"849":2.627609968185425,"850":3.952582359313965,"851":0.9745789766311646,"852":2.01920223236084,"853":-3.5624892711639404,"854":1.771316647529602,"855":3.3788187503814697,"856":-1.3666422367095947,"857":-0.24616925418376923,"858":1.4782084226608276,"859":0.5147879123687744,"860":0.4584450423717499,"861":1.6014660596847534,"862":1.6950891017913818,"863":1.6813405752182007,"864":-2.3690333366394043,"865":-1.5579628944396973,"866":2.3971710205078125,"867":-1.4005361795425415,"868":-1.2015150785446167,"869":0.6726782321929932,"870":-1.6585994958877563,"871":-0.009675591252744198,"872":1.068222165107727,"873":-0.181773379445076,"874":-0.5949535965919495,"875":-1.3864272832870483,"876":-3.067695379257202,"877":1.2994155883789062,"878":0.7103908061981201,"879":2.2078468799591064,"880":1.3523691892623901,"881":2.360063314437866,"882":3.933744192123413,"883":-1.7118300199508667,"884":1.3076025247573853,"885":3.664337396621704,"886":-1.1256052255630493,"887":1.701070785522461,"888":2.4221878051757812,"889":-0.704291045665741,"890":2.6108222007751465,"891":0.8854624032974243,"892":-3.546037197113037,"893":-0.9196755886077881,"894":-1.3520734310150146,"895":2.518221616744995,"896":1.1283797025680542,"897":0.7031444311141968,"898":-2.3747308254241943,"899":-3.0484061241149902,"900":-0.0010169876040890813,"901":0.0008919684332795441,"902":0.00016562342352699488,"903":-0.00000934431500354549,"904":0.0011792003642767668,"905":0.0015374283539131284,"906":-0.001083845505490899,"907":-0.00007787520007696003,"908":-0.0021987196523696184,"909":0.0008323068614117801,"910":0.0029837354086339474,"911":-0.002994013484567404,"912":0.0027267246041446924,"913":0.0019566386472433805,"914":-0.0020202023442834616,"915":0.0017247010255232453,"916":-0.002539683599025011,"917":0.001005841768346727,"918":0.001924031530506909,"919":0.0011819163337349892,"920":-0.00016121906810440123,"921":-0.0005444423877634108,"922":-0.0009804731234908104,"923":-0.0010714455274865031,"924":-0.0005779399652965367,"925":-0.00036939012352377176,"926":-0.000362748047336936,"927":0.002449280582368374,"928":0.0026345415972173214,"929":-0.00036734514287672937}},"hiddenLayers":[{"inputMatrix":{"rows":20,"columns":30,"weights":{"0":0.21487218141555786,"1":-0.24069584906101227,"2":-0.3855195939540863,"3":0.710021436214447,"4":-0.8937784433364868,"5":-1.34379243850708,"6":-0.038285646587610245,"7":2.0470168590545654,"8":-3.4055302143096924,"9":1.3101319074630737,"10":2.1191749572753906,"11":0.6154472827911377,"12":1.5228424072265625,"13":-0.9774760007858276,"14":0.807240903377533,"15":0.4244464635848999,"16":2.5778181552886963,"17":-0.5183658599853516,"18":1.1179347038269043,"19":-1.403254508972168,"20":-0.5027117133140564,"21":0.13553157448768616,"22":1.2675403356552124,"23":-2.4470651149749756,"24":0.5543898940086365,"25":2.014756202697754,"26":-1.0012253522872925,"27":0.38394901156425476,"28":0.8847358822822571,"29":-2.378699779510498,"30":-0.5954048037528992,"31":1.6620463132858276,"32":1.5837488174438477,"33":0.7256942391395569,"34":-1.236035943031311,"35":2.8476572036743164,"36":-0.38446494936943054,"37":1.6157230138778687,"38":-2.114330768585205,"39":-0.2593022584915161,"40":0.20308203995227814,"41":-0.10801999270915985,"42":2.097982406616211,"43":-1.2101153135299683,"44":-0.21960997581481934,"45":2.1807751655578613,"46":-0.5062456130981445,"47":-0.21622446179389954,"48":-0.8456537127494812,"49":1.055532693862915,"50":0.5766223669052124,"51":0.4819584786891937,"52":1.4222524166107178,"53":-0.43524351716041565,"54":-0.1263498067855835,"55":0.58024662733078,"56":1.4894245862960815,"57":0.1901475191116333,"58":2.033726692199707,"59":-5.600728511810303,"60":1.356438159942627,"61":-0.1185159906744957,"62":1.147641897201538,"63":-0.388923317193985,"64":-0.7147157788276672,"65":2.564242124557495,"66":-0.43542370200157166,"67":-0.376830130815506,"68":-1.1899992227554321,"69":-0.24188128113746643,"70":-0.8169233798980713,"71":-1.0081974267959595,"72":2.186699867248535,"73":0.1998586505651474,"74":1.6566189527511597,"75":1.7315518856048584,"76":1.079687476158142,"77":-1.7408989667892456,"78":1.7879449129104614,"79":-1.0043617486953735,"80":-0.13015516102313995,"81":2.1279613971710205,"82":0.3788067102432251,"83":-2.7537407875061035,"84":0.3396660387516022,"85":0.9023568630218506,"86":1.2368711233139038,"87":1.0177627801895142,"88":-1.240673303604126,"89":-1.9324631690979004,"90":-0.3587077856063843,"91":-1.0025581121444702,"92":0.27601316571235657,"93":1.0373210906982422,"94":-0.7236757874488831,"95":1.9043607711791992,"96":-1.5836200714111328,"97":-1.7373270988464355,"98":1.0605355501174927,"99":-0.9027885794639587,"100":0.7653827667236328,"101":1.2417571544647217,"102":0.519578218460083,"103":-1.5085864067077637,"104":1.1471009254455566,"105":0.23648381233215332,"106":1.2226113080978394,"107":0.9061905145645142,"108":1.0905896425247192,"109":-0.20754504203796387,"110":-1.7749836444854736,"111":0.0996893048286438,"112":-0.2958294153213501,"113":-0.287445604801178,"114":-1.7596229314804077,"115":-1.6664577722549438,"116":3.038564682006836,"117":1.5373696088790894,"118":-0.9312121868133545,"119":-0.5636110901832581,"120":-1.0314286947250366,"121":0.3221607804298401,"122":-0.6528353095054626,"123":1.3225420713424683,"124":0.7390965223312378,"125":0.5571712255477905,"126":2.7983102798461914,"127":0.9925124645233154,"128":0.7618139386177063,"129":-1.865064263343811,"130":-0.9310303926467896,"131":0.3202778697013855,"132":-1.069584846496582,"133":0.9614934325218201,"134":-2.795086145401001,"135":-0.3147491216659546,"136":1.1794592142105103,"137":0.401850163936615,"138":-0.7373123168945312,"139":-0.23257525265216827,"140":-1.95249342918396,"141":1.1694285869598389,"142":-1.2303308248519897,"143":2.5086519718170166,"144":1.925127387046814,"145":0.43120458722114563,"146":2.5180861949920654,"147":0.1266959309577942,"148":0.36403363943099976,"149":1.184929370880127,"150":1.8340129852294922,"151":0.7595717310905457,"152":0.5861334204673767,"153":-0.8418744206428528,"154":-0.8179763555526733,"155":0.6611196994781494,"156":0.5794522762298584,"157":3.5883593559265137,"158":-1.5359423160552979,"159":1.9109570980072021,"160":0.8016886115074158,"161":2.451441764831543,"162":0.7519997954368591,"163":-2.0883710384368896,"164":0.9964807629585266,"165":1.0178226232528687,"166":-0.8323184847831726,"167":0.9020190834999084,"168":1.8506168127059937,"169":1.6986336708068848,"170":2.058880567550659,"171":3.942162036895752,"172":0.23745432496070862,"173":0.09674060344696045,"174":-1.0049500465393066,"175":0.5303118824958801,"176":0.3855403959751129,"177":-0.4767409563064575,"178":1.4393471479415894,"179":-2.1533570289611816,"180":1.1635847091674805,"181":0.34009528160095215,"182":-1.8695789575576782,"183":1.0465532541275024,"184":0.8143337965011597,"185":0.4530068635940552,"186":-1.6193674802780151,"187":-0.3791840970516205,"188":1.1927976608276367,"189":0.03156604617834091,"190":-0.8505468964576721,"191":0.6808684468269348,"192":-4.19028377532959,"193":2.195300579071045,"194":0.6326592564582825,"195":-3.1267707347869873,"196":0.8904112577438354,"197":1.003165364265442,"198":-0.9624871015548706,"199":1.6365536451339722,"200":-0.032954759895801544,"201":-0.9259535670280457,"202":-0.8254600167274475,"203":1.7565486431121826,"204":1.556368112564087,"205":-2.807339906692505,"206":0.726449728012085,"207":-0.17992614209651947,"208":0.9541129469871521,"209":1.8200749158859253,"210":-0.001403667381964624,"211":0.6036440134048462,"212":-0.5941621661186218,"213":1.0175000429153442,"214":-1.2412148714065552,"215":0.18812911212444305,"216":2.9187285900115967,"217":0.5652123689651489,"218":0.9880897402763367,"219":-1.8677557706832886,"220":-1.1921395063400269,"221":0.5790266394615173,"222":0.9283978343009949,"223":0.7038202285766602,"224":-0.4549943804740906,"225":1.3697489500045776,"226":2.048383951187134,"227":-0.9973872900009155,"228":0.4746945798397064,"229":-0.6634058356285095,"230":0.7284926772117615,"231":-0.7648807764053345,"232":-1.2847508192062378,"233":1.8849464654922485,"234":0.36560630798339844,"235":4.069383144378662,"236":-1.1974847316741943,"237":0.19870801270008087,"238":0.35186734795570374,"239":2.226585865020752,"240":0.5005707740783691,"241":-1.8085089921951294,"242":-1.42310631275177,"243":0.2035193145275116,"244":0.24870185554027557,"245":-1.1017593145370483,"246":-2.019686698913574,"247":-1.5638604164123535,"248":-1.6081911325454712,"249":-0.9069153666496277,"250":1.6265861988067627,"251":0.08058137446641922,"252":-1.9159400463104248,"253":2.1803016662597656,"254":1.9187015295028687,"255":-2.113581657409668,"256":1.3721401691436768,"257":1.4433507919311523,"258":0.5545661449432373,"259":0.8476930260658264,"260":-1.988438367843628,"261":0.5822545289993286,"262":-0.9699116349220276,"263":-0.36871737241744995,"264":0.4674947261810303,"265":-2.8982391357421875,"266":0.20019356906414032,"267":-1.320255160331726,"268":-0.31226280331611633,"269":1.1222420930862427,"270":1.9500406980514526,"271":1.8449196815490723,"272":0.7813201546669006,"273":1.0891934633255005,"274":0.17481783032417297,"275":-0.17821787297725677,"276":-0.3356913924217224,"277":-1.1284781694412231,"278":2.1431891918182373,"279":-3.689487934112549,"280":1.7095807790756226,"281":-0.97222501039505,"282":-0.7290187478065491,"283":-1.8353227376937866,"284":0.8885173797607422,"285":-1.7100646495819092,"286":1.0837976932525635,"287":1.4233946800231934,"288":-1.6560380458831787,"289":-1.463793396949768,"290":-1.0653069019317627,"291":-0.6338585615158081,"292":0.4771639406681061,"293":-0.8157460689544678,"294":0.5096970796585083,"295":-1.5101929903030396,"296":0.5811805725097656,"297":1.395355224609375,"298":0.8098312020301819,"299":1.7113592624664307,"300":1.0924699306488037,"301":-0.013945044949650764,"302":-0.7136179804801941,"303":-0.6295127868652344,"304":-1.3230262994766235,"305":-2.0035672187805176,"306":-0.3377552032470703,"307":-2.174427032470703,"308":-1.5961869955062866,"309":0.10927891731262207,"310":2.365537405014038,"311":2.8720932006835938,"312":-0.20990805327892303,"313":-3.9412035942077637,"314":3.1146061420440674,"315":-0.8683575391769409,"316":1.72051203250885,"317":1.7774323225021362,"318":0.010174339637160301,"319":1.3810900449752808,"320":0.3731253147125244,"321":0.6623765826225281,"322":1.5010809898376465,"323":0.2607424557209015,"324":-1.0951423645019531,"325":-2.895193338394165,"326":-0.19380320608615875,"327":-1.0135338306427002,"328":-2.7962379455566406,"329":-1.4334607124328613,"330":0.33072739839553833,"331":-2.0732421875,"332":0.8335731029510498,"333":-0.21710410714149475,"334":-0.3357475996017456,"335":0.81819748878479,"336":-1.1494016647338867,"337":0.2646091878414154,"338":2.0143280029296875,"339":0.5157856941223145,"340":0.6811742782592773,"341":-0.25040125846862793,"342":0.022167423740029335,"343":2.1172373294830322,"344":-4.139496326446533,"345":0.2629918158054352,"346":-0.5460590720176697,"347":-1.3825011253356934,"348":0.43624159693717957,"349":-2.7337746620178223,"350":-0.691066563129425,"351":-0.2914559543132782,"352":-0.7040132284164429,"353":3.8454012870788574,"354":-0.04688078910112381,"355":1.479416847229004,"356":1.2524592876434326,"357":0.2243422120809555,"358":-0.8089025616645813,"359":1.6398932933807373,"360":0.8772492408752441,"361":-1.2052909135818481,"362":-0.32147952914237976,"363":-1.0142966508865356,"364":0.3265596330165863,"365":0.1031755805015564,"366":-2.178133487701416,"367":-1.957137942314148,"368":-2.8448636531829834,"369":1.6095972061157227,"370":-0.37175676226615906,"371":-0.5771799087524414,"372":-0.5739059448242188,"373":0.4539589285850525,"374":3.5625648498535156,"375":-0.7647822499275208,"376":0.5798337459564209,"377":0.30273911356925964,"378":0.4773695468902588,"379":1.9989947080612183,"380":0.07504390925168991,"381":1.6591272354125977,"382":0.7941495776176453,"383":-1.4600099325180054,"384":0.31392258405685425,"385":-1.8468047380447388,"386":-1.2555365562438965,"387":-1.5987896919250488,"388":1.0125794410705566,"389":1.5723257064819336,"390":2.206968307495117,"391":-0.672048807144165,"392":-0.18308037519454956,"393":0.4359026849269867,"394":-3.129009246826172,"395":0.01792004518210888,"396":-0.8659249544143677,"397":2.412707567214966,"398":-0.09528949856758118,"399":0.5025306940078735,"400":-0.7777056694030762,"401":1.1689136028289795,"402":2.503941774368286,"403":-2.2526392936706543,"404":0.05325603485107422,"405":0.5250178575515747,"406":-0.9790902137756348,"407":-2.915132999420166,"408":-0.5642677545547485,"409":1.7257640361785889,"410":1.7681689262390137,"411":-2.297743558883667,"412":1.007737636566162,"413":2.347567319869995,"414":-1.6695401668548584,"415":0.46199098229408264,"416":0.5453202724456787,"417":-1.484910011291504,"418":0.33307141065597534,"419":3.1301159858703613,"420":0.3118094205856323,"421":-0.119903564453125,"422":1.935250997543335,"423":-2.169992685317993,"424":-0.4705885648727417,"425":-0.3056376576423645,"426":-1.5525342226028442,"427":-1.0222837924957275,"428":-1.0716434717178345,"429":1.2793062925338745,"430":-0.6751492619514465,"431":0.9790563583374023,"432":-1.2773890495300293,"433":-1.9756678342819214,"434":1.6733572483062744,"435":2.1756274700164795,"436":-0.32724031805992126,"437":0.33837127685546875,"438":0.5079541206359863,"439":-1.0728894472122192,"440":2.4330496788024902,"441":-1.5421544313430786,"442":0.7049375176429749,"443":-1.1717896461486816,"444":-2.5066161155700684,"445":0.8516079187393188,"446":0.5656037926673889,"447":-0.6031976938247681,"448":-0.0005446263821795583,"449":-3.03035044670105,"450":-0.9300262331962585,"451":-0.7013471126556396,"452":2.1781437397003174,"453":0.8444962501525879,"454":-0.018947655335068703,"455":1.811407446861267,"456":0.763260006904602,"457":1.1395833492279053,"458":-1.154140591621399,"459":0.7333080172538757,"460":0.3808159828186035,"461":-2.3975000381469727,"462":-0.47321978211402893,"463":-0.5165925621986389,"464":-1.4285740852355957,"465":0.574487030506134,"466":1.2163702249526978,"467":1.2327635288238525,"468":-0.8226801753044128,"469":-0.7304596304893494,"470":0.6355983018875122,"471":-3.5575573444366455,"472":1.1953344345092773,"473":-1.0523442029953003,"474":1.27828049659729,"475":-0.5442199110984802,"476":0.12967441976070404,"477":1.9564989805221558,"478":3.639650821685791,"479":-0.7987950444221497,"480":1.4449708461761475,"481":-0.7771707773208618,"482":-1.3746039867401123,"483":-2.1810224056243896,"484":-0.09516073763370514,"485":-1.4353883266448975,"486":-3.1951630115509033,"487":-1.3245213031768799,"488":0.3507523536682129,"489":0.9400205612182617,"490":0.1643868088722229,"491":0.8672707676887512,"492":0.20872527360916138,"493":-0.8362667560577393,"494":2.0034961700439453,"495":-0.4230034351348877,"496":-0.6764411330223083,"497":1.1074004173278809,"498":0.3283032178878784,"499":-0.2536048889160156,"500":1.204844355583191,"501":-0.16861824691295624,"502":-1.3016523122787476,"503":-0.045360174030065536,"504":-1.7425206899642944,"505":1.4833823442459106,"506":-1.3001363277435303,"507":-3.4714608192443848,"508":0.09522270411252975,"509":1.401266098022461,"510":-0.867703914642334,"511":-2.3958258628845215,"512":1.8621019124984741,"513":4.0601911544799805,"514":2.0017528533935547,"515":1.5716737508773804,"516":0.8483588695526123,"517":-0.6288963556289673,"518":-1.8004955053329468,"519":0.9890723824501038,"520":-1.431326985359192,"521":-1.5839451551437378,"522":-2.050997495651245,"523":-0.5137680172920227,"524":-2.274661064147949,"525":-0.1373954564332962,"526":-1.748880386352539,"527":-0.28269678354263306,"528":-2.4365878105163574,"529":-1.9561737775802612,"530":0.3699558675289154,"531":-2.6143577098846436,"532":0.36706021428108215,"533":3.2072267532348633,"534":1.1932413578033447,"535":-0.024140261113643646,"536":-2.0520267486572266,"537":1.613925576210022,"538":0.6858883500099182,"539":-1.9861887693405151,"540":1.3936951160430908,"541":-1.949824333190918,"542":1.0789772272109985,"543":0.5113552808761597,"544":-1.410361886024475,"545":1.5126712322235107,"546":0.6243659853935242,"547":1.2984970808029175,"548":-1.4262454509735107,"549":-0.9979792237281799,"550":-1.6912885904312134,"551":-0.9511458277702332,"552":-0.5888341665267944,"553":-0.6869946718215942,"554":-1.5045459270477295,"555":0.9515431523323059,"556":3.9706432819366455,"557":-2.640030860900879,"558":0.35642266273498535,"559":0.3950919210910797,"560":1.5732245445251465,"561":-0.5895265936851501,"562":-1.4161280393600464,"563":-0.1018957793712616,"564":2.3509862422943115,"565":0.7297617197036743,"566":-0.1172143891453743,"567":1.5468764305114746,"568":0.5830336213111877,"569":-0.16689461469650269,"570":-1.9017695188522339,"571":1.7693954706192017,"572":0.7049573659896851,"573":-0.3810669779777527,"574":-2.082580804824829,"575":1.7306848764419556,"576":0.7380432486534119,"577":-0.6961434483528137,"578":0.44642552733421326,"579":1.739497184753418,"580":-0.5402661561965942,"581":-0.037975311279296875,"582":2.5378572940826416,"583":0.6713745594024658,"584":-0.9735171794891357,"585":0.11835562437772751,"586":2.8576924800872803,"587":-3.122312068939209,"588":-2.2037253379821777,"589":2.748981237411499,"590":-0.19330154359340668,"591":-0.2997948229312897,"592":-2.436903238296509,"593":-0.9774781465530396,"594":0.7293074131011963,"595":-0.032837916165590286,"596":1.16000497341156,"597":0.6330260038375854,"598":-0.12792761623859406,"599":0.6216660141944885}},"inputHidden":{"rows":20,"columns":20,"weights":{"0":0.7381526827812195,"1":1.1042641401290894,"2":0.2937241792678833,"3":0.4224792718887329,"4":-0.5349395275115967,"5":3.9057555198669434,"6":2.975046396255493,"7":-0.12710897624492645,"8":-1.168494462966919,"9":2.172851800918579,"10":-1.3354588747024536,"11":-0.06503504514694214,"12":0.46392419934272766,"13":-1.5461642742156982,"14":0.5850813984870911,"15":0.4259440004825592,"16":-4.292656421661377,"17":0.6583505272865295,"18":0.006230855826288462,"19":0.9434394240379333,"20":0.5635268688201904,"21":-0.3497873842716217,"22":0.3659500777721405,"23":0.10726838558912277,"24":2.612663984298706,"25":-2.2966721057891846,"26":2.4473862648010254,"27":0.19320820271968842,"28":0.07262273877859116,"29":-0.2381943315267563,"30":-0.7669495344161987,"31":-1.523651361465454,"32":0.18802224099636078,"33":-0.92750483751297,"34":1.1461366415023804,"35":-1.6717699766159058,"36":0.2461833953857422,"37":-1.1314746141433716,"38":0.07110733538866043,"39":0.7727697491645813,"40":-1.642566204071045,"41":-0.34043118357658386,"42":-0.8356995582580566,"43":-0.16077043116092682,"44":-0.028845706954598427,"45":1.108806848526001,"46":0.5512396693229675,"47":0.6764365434646606,"48":-1.0368348360061646,"49":1.6795344352722168,"50":-0.39419877529144287,"51":-0.13048456609249115,"52":0.6363664865493774,"53":-0.20138394832611084,"54":1.7953112125396729,"55":1.548809289932251,"56":0.5464690327644348,"57":0.33043980598449707,"58":0.38272523880004883,"59":0.5460302233695984,"60":-1.8429316282272339,"61":0.9118068814277649,"62":0.27739086747169495,"63":-0.31740134954452515,"64":-0.4267958104610443,"65":-0.6357632279396057,"66":0.1940435916185379,"67":-0.002519689965993166,"68":0.5584387183189392,"69":1.4423080682754517,"70":-1.0365822315216064,"71":-0.005994385574012995,"72":0.08807363361120224,"73":0.33692142367362976,"74":0.13663001358509064,"75":1.285841464996338,"76":0.24742235243320465,"77":1.8663721084594727,"78":0.2867714762687683,"79":0.118135467171669,"80":-0.3795076906681061,"81":-1.4360058307647705,"82":0.4062737226486206,"83":-0.43277856707572937,"84":1.5220824480056763,"85":1.0936435461044312,"86":1.1126130819320679,"87":0.008697129786014557,"88":-0.9924008846282959,"89":-0.7378692626953125,"90":0.4950854778289795,"91":0.5624718070030212,"92":-0.639880895614624,"93":0.24255825579166412,"94":-1.0735949277877808,"95":-0.541490912437439,"96":0.3870604336261749,"97":-0.8464113473892212,"98":0.6713327765464783,"99":0.09844447672367096,"100":3.9317448139190674,"101":0.9758788347244263,"102":0.15094344317913055,"103":1.8529986143112183,"104":-1.7731423377990723,"105":6.435253620147705,"106":-0.3337007462978363,"107":1.1425749063491821,"108":-1.1143403053283691,"109":-0.8731846213340759,"110":0.04332030192017555,"111":1.289819359779358,"112":0.8269392251968384,"113":-0.7941482663154602,"114":-1.919870138168335,"115":-1.9654839038848877,"116":-2.653334617614746,"117":1.9445984363555908,"118":2.3188912868499756,"119":1.604028344154358,"120":0.36472252011299133,"121":0.7313205003738403,"122":0.7946276664733887,"123":-0.4095795154571533,"124":1.656309723854065,"125":-0.5691726803779602,"126":-0.3329540491104126,"127":-0.10304632037878036,"128":-0.7356915473937988,"129":-1.1884441375732422,"130":0.09498307853937149,"131":-0.352777361869812,"132":-0.32301655411720276,"133":-0.827960729598999,"134":1.302425742149353,"135":0.542506754398346,"136":0.22756753861904144,"137":0.925413966178894,"138":-0.579159677028656,"139":-0.7478647232055664,"140":1.5636796951293945,"141":-0.3172329068183899,"142":0.2259160280227661,"143":-0.05624941736459732,"144":-0.36060798168182373,"145":0.3938114643096924,"146":0.5895401835441589,"147":0.6312358379364014,"148":-0.3103395402431488,"149":-0.2781422436237335,"150":-0.517503023147583,"151":-2.0527374744415283,"152":-0.4005747437477112,"153":0.06125206500291824,"154":2.957226037979126,"155":0.35354673862457275,"156":0.4483620524406433,"157":0.27776631712913513,"158":1.004447102546692,"159":-0.10822458565235138,"160":0.07461878657341003,"161":-0.34513944387435913,"162":-0.7511610388755798,"163":-0.5903111100196838,"164":-0.529955267906189,"165":0.9560921788215637,"166":-1.2328500747680664,"167":0.3173385262489319,"168":-0.009587009437382221,"169":-2.017068386077881,"170":1.022188663482666,"171":-3.8846592903137207,"172":1.1571842432022095,"173":-0.17184381186962128,"174":0.21137844026088715,"175":-1.5760563611984253,"176":-0.6997513175010681,"177":2.390817165374756,"178":1.2701377868652344,"179":0.2184886634349823,"180":-0.5421940684318542,"181":-0.2828856110572815,"182":0.6220511794090271,"183":-0.8915706276893616,"184":-0.07209941744804382,"185":0.0156677458435297,"186":0.6661860942840576,"187":-0.5281550884246826,"188":-0.822209358215332,"189":-0.4628604054450989,"190":0.6833573579788208,"191":-0.24935783445835114,"192":0.07377088814973831,"193":-0.8132070899009705,"194":0.7493924498558044,"195":0.6308020949363708,"196":0.7644356489181519,"197":-0.5791186690330505,"198":-0.5110334753990173,"199":0.0661606416106224,"200":-2.6411383152008057,"201":-1.7393944263458252,"202":0.3555811047554016,"203":1.4414211511611938,"204":1.4758936166763306,"205":0.80021071434021,"206":0.37307482957839966,"207":0.714169979095459,"208":1.0921993255615234,"209":-0.28207895159721375,"210":-0.16043856739997864,"211":-1.7352315187454224,"212":-1.1517704725265503,"213":0.15335217118263245,"214":-0.21812008321285248,"215":2.868769645690918,"216":-0.20528574287891388,"217":0.44379353523254395,"218":0.20831440389156342,"219":0.5975071787834167,"220":-0.8708603382110596,"221":0.46905115246772766,"222":0.8801088333129883,"223":-1.442145586013794,"224":0.5044546723365784,"225":0.29841750860214233,"226":-0.11534120887517929,"227":-1.606508731842041,"228":0.7800351977348328,"229":0.8155578970909119,"230":-0.09729371219873428,"231":0.06600538641214371,"232":-0.030303889885544777,"233":0.036047350615262985,"234":-0.2827519178390503,"235":-0.9979066848754883,"236":-0.3315993547439575,"237":-0.5466337203979492,"238":0.19523456692695618,"239":0.16241826117038727,"240":3.533952474594116,"241":0.8308562636375427,"242":0.4601909816265106,"243":-1.9036005735397339,"244":-0.29146337509155273,"245":1.5992329120635986,"246":-0.8493641018867493,"247":1.7803261280059814,"248":-3.2833404541015625,"249":-1.6561094522476196,"250":-2.119678258895874,"251":-0.09033860266208649,"252":1.0031753778457642,"253":-1.6589070558547974,"254":0.7454054951667786,"255":1.039390206336975,"256":0.4049547016620636,"257":-1.7962336540222168,"258":-0.7207756638526917,"259":0.5364331007003784,"260":1.7067453861236572,"261":-1.686815857887268,"262":0.4496619701385498,"263":-1.4398980140686035,"264":0.9621040225028992,"265":-0.6050881147384644,"266":-2.5556724071502686,"267":0.6310363411903381,"268":2.0778443813323975,"269":-0.08480928838253021,"270":-1.9448307752609253,"271":-0.5232381224632263,"272":0.1000216156244278,"273":-1.4430378675460815,"274":0.5967152714729309,"275":-1.266535997390747,"276":-0.17545732855796814,"277":0.9317314028739929,"278":1.522370457649231,"279":-0.39819708466529846,"280":-0.6725226640701294,"281":0.23849131166934967,"282":-0.4325328767299652,"283":1.6492975950241089,"284":0.6144989132881165,"285":0.2692655622959137,"286":0.590061366558075,"287":0.39923733472824097,"288":0.37623995542526245,"289":-0.2184656858444214,"290":0.019073758274316788,"291":-0.39202460646629333,"292":-0.5567103028297424,"293":0.46818315982818604,"294":-0.28473663330078125,"295":-0.14662684500217438,"296":-0.036850471049547195,"297":-0.5770213007926941,"298":-0.46853455901145935,"299":-0.18028949201107025,"300":1.6431807279586792,"301":0.08755622804164886,"302":0.7309679985046387,"303":-0.27106019854545593,"304":-0.49157416820526123,"305":1.4595623016357422,"306":-0.22155176103115082,"307":-0.02553737349808216,"308":-1.2213116884231567,"309":-1.490464687347412,"310":-1.1735228300094604,"311":-1.1731722354888916,"312":0.24255231022834778,"313":1.023910641670227,"314":0.5853580236434937,"315":-0.6227421164512634,"316":-0.2741650938987732,"317":2.0787723064422607,"318":-1.0020865201950073,"319":-0.5672795176506042,"320":-0.2178768813610077,"321":-0.6490922570228577,"322":-0.8631305694580078,"323":-0.9714343547821045,"324":0.9470406770706177,"325":-0.6562114357948303,"326":-0.011055702343583107,"327":0.42999836802482605,"328":-1.088386058807373,"329":-0.42581793665885925,"330":0.8305559158325195,"331":0.34527015686035156,"332":0.3133690357208252,"333":0.6742305159568787,"334":0.17596390843391418,"335":-0.749590277671814,"336":0.2759498059749603,"337":0.3278186619281769,"338":-0.3054359555244446,"339":-1.417520523071289,"340":1.145607352256775,"341":1.129117727279663,"342":4.419170379638672,"343":2.4636850357055664,"344":-1.729432463645935,"345":1.9619429111480713,"346":0.8376778960227966,"347":-1.1013809442520142,"348":-0.6671404838562012,"349":-0.7648124694824219,"350":-2.290663003921509,"351":3.660889148712158,"352":-0.9665229320526123,"353":1.1666377782821655,"354":4.23546028137207,"355":3.3280117511749268,"356":-0.2438274323940277,"357":-1.9418561458587646,"358":-3.6897642612457275,"359":1.2890207767486572,"360":-1.7340270280838013,"361":-1.1466819047927856,"362":-0.9113854765892029,"363":0.30957138538360596,"364":-1.7409051656723022,"365":0.5464842319488525,"366":-1.3532538414001465,"367":-0.5022450089454651,"368":-0.16804994642734528,"369":0.7267378568649292,"370":0.6322246193885803,"371":-0.8611346483230591,"372":-0.2048604041337967,"373":1.9188908338546753,"374":0.622133731842041,"375":1.5094045400619507,"376":-0.3053920567035675,"377":-0.6004843711853027,"378":-1.580278754234314,"379":0.9601678252220154,"380":-0.2690947651863098,"381":1.0019315481185913,"382":0.41603678464889526,"383":-0.03379816189408302,"384":-0.014062043279409409,"385":0.6727036833763123,"386":-1.2294613122940063,"387":3.038022756576538,"388":-0.8296574354171753,"389":-0.24471628665924072,"390":-0.03151354566216469,"391":1.53179931640625,"392":-0.6627696752548218,"393":-0.6391361355781555,"394":2.2665343284606934,"395":1.413718581199646,"396":-1.1765867471694946,"397":0.45630401372909546,"398":0.7303263545036316,"399":-1.786756992340088}},"inputBias":{"rows":20,"columns":1,"weights":{"0":-0.06090449541807175,"1":-0.7194965481758118,"2":0.17434583604335785,"3":-0.4028346538543701,"4":0.1762203872203827,"5":0.11834804713726044,"6":-0.5664189457893372,"7":0.22220098972320557,"8":-0.681337296962738,"9":-0.21316246688365936,"10":-0.11003293097019196,"11":-0.002841968322172761,"12":-0.8906983733177185,"13":0.28444403409957886,"14":0.3908718228340149,"15":0.02737378515303135,"16":1.0261636972427368,"17":0.852266788482666,"18":-0.5454973578453064,"19":-1.190458059310913}},"forgetMatrix":{"rows":20,"columns":30,"weights":{"0":0.55674147605896,"1":0.28465062379837036,"2":0.8508522510528564,"3":-1.7049891948699951,"4":-0.003328128485009074,"5":2.2487521171569824,"6":-0.032596465200185776,"7":0.9427793025970459,"8":1.3779759407043457,"9":-1.6574615240097046,"10":-0.2852570116519928,"11":0.22256037592887878,"12":0.41175922751426697,"13":-0.9983581304550171,"14":-1.6703815460205078,"15":-1.444977045059204,"16":1.9651371240615845,"17":-0.05112999305129051,"18":0.9483168721199036,"19":0.6058861017227173,"20":0.6526119709014893,"21":0.19573381543159485,"22":1.360978126525879,"23":0.5254307389259338,"24":0.5320488214492798,"25":-0.6419092416763306,"26":1.8589376211166382,"27":1.5039724111557007,"28":0.8253208994865417,"29":-0.8200293183326721,"30":0.44396549463272095,"31":0.8039884567260742,"32":-0.13674111664295197,"33":0.529052734375,"34":-0.49050381779670715,"35":-1.2213566303253174,"36":0.4667230248451233,"37":1.8557950258255005,"38":-1.0631484985351562,"39":1.1631001234054565,"40":-0.7345019578933716,"41":0.5357771515846252,"42":-2.062206745147705,"43":-0.2632659375667572,"44":-1.1513701677322388,"45":-0.7901812791824341,"46":0.4896712601184845,"47":0.25333309173583984,"48":-3.340773105621338,"49":0.21604129672050476,"50":1.323839783668518,"51":-0.5981019139289856,"52":1.4305534362792969,"53":-0.028977958485484123,"54":0.5924453139305115,"55":0.4554216265678406,"56":-0.41233590245246887,"57":-0.6787864565849304,"58":3.946561574935913,"59":-1.9707486629486084,"60":0.05012921243906021,"61":0.8027572631835938,"62":-0.995856523513794,"63":0.07681398093700409,"64":-1.5981683731079102,"65":3.9035403728485107,"66":0.014427773654460907,"67":0.3176468014717102,"68":1.3082399368286133,"69":0.4390977621078491,"70":-0.8250965476036072,"71":-0.8517429232597351,"72":1.8899903297424316,"73":1.1859912872314453,"74":1.4220361709594727,"75":0.36114299297332764,"76":-0.5509883761405945,"77":-0.8068491220474243,"78":0.17517106235027313,"79":-1.89970064163208,"80":-0.7198294401168823,"81":1.962613821029663,"82":-0.18166837096214294,"83":0.5178860425949097,"84":-1.6325269937515259,"85":0.3911683261394501,"86":0.8954898118972778,"87":-0.20586274564266205,"88":-2.401517629623413,"89":1.8171981573104858,"90":0.41613003611564636,"91":0.04534018784761429,"92":-1.1950184106826782,"93":-0.2221059948205948,"94":0.8319391012191772,"95":-0.3701481223106384,"96":1.0760451555252075,"97":-0.7548428773880005,"98":-0.7107278108596802,"99":-1.7357124090194702,"100":1.2556816339492798,"101":0.566330075263977,"102":-4.952359676361084,"103":-1.2900501489639282,"104":0.31267672777175903,"105":-1.9152264595031738,"106":-0.9006068110466003,"107":0.9588884115219116,"108":-1.8850489854812622,"109":-1.002365231513977,"110":1.2299363613128662,"111":-1.4088718891143799,"112":-0.47823747992515564,"113":0.2483159303665161,"114":0.835099995136261,"115":-0.053014125674963,"116":-0.7343407869338989,"117":0.03476281464099884,"118":1.917365312576294,"119":0.7504010200500488,"120":0.08514989167451859,"121":0.40589770674705505,"122":1.3463575839996338,"123":-0.8469728231430054,"124":0.6208343505859375,"125":-0.2901656925678253,"126":2.4706311225891113,"127":-2.6786234378814697,"128":-0.038334522396326065,"129":-2.5668070316314697,"130":0.3903389275074005,"131":0.24787496030330658,"132":-2.2256619930267334,"133":0.21899744868278503,"134":-0.817294180393219,"135":-1.3301914930343628,"136":0.36781924962997437,"137":1.9752252101898193,"138":-1.4506444931030273,"139":-0.9118314981460571,"140":0.3852575123310089,"141":0.45513004064559937,"142":1.0208048820495605,"143":1.673974633216858,"144":1.1005793809890747,"145":-1.1695011854171753,"146":1.6691185235977173,"147":2.6413381099700928,"148":1.5341979265213013,"149":-1.0609487295150757,"150":0.2597876787185669,"151":0.7856673002243042,"152":-1.402569055557251,"153":-0.6997936367988586,"154":0.5963372588157654,"155":-0.2531275749206543,"156":0.821011483669281,"157":-1.447242021560669,"158":1.228151798248291,"159":0.17026159167289734,"160":-0.7851006984710693,"161":-1.4077649116516113,"162":-1.5080597400665283,"163":1.1395840644836426,"164":-1.551882266998291,"165":-0.5938552618026733,"166":-1.0176124572753906,"167":-0.7877007722854614,"168":-0.20052281022071838,"169":0.6493150591850281,"170":-0.8985134959220886,"171":-0.5049775242805481,"172":-2.3541789054870605,"173":1.5226919651031494,"174":0.49034449458122253,"175":1.0676099061965942,"176":-0.617271363735199,"177":-0.5710116028785706,"178":0.5000498294830322,"179":0.9749352931976318,"180":0.11054140329360962,"181":0.7308402061462402,"182":-0.2826078236103058,"183":0.6661651134490967,"184":-1.4298210144042969,"185":-1.0859037637710571,"186":0.9266793727874756,"187":-0.06417723745107651,"188":-0.5218343138694763,"189":0.8440497517585754,"190":0.010256895795464516,"191":-1.0309526920318604,"192":0.12202192097902298,"193":0.29195067286491394,"194":1.7102463245391846,"195":2.7982938289642334,"196":-1.534783959388733,"197":-1.0746923685073853,"198":2.017833709716797,"199":-1.8675568103790283,"200":0.2053271234035492,"201":-0.7224397659301758,"202":0.7581947445869446,"203":-1.6375166177749634,"204":-0.5612332820892334,"205":1.9561071395874023,"206":0.06525006145238876,"207":0.6138098835945129,"208":-1.1869189739227295,"209":-0.8552501797676086,"210":1.4762455224990845,"211":-1.4321415424346924,"212":0.1516294926404953,"213":0.19677405059337616,"214":-0.8003721237182617,"215":-0.45473483204841614,"216":-1.141418218612671,"217":-0.9005982875823975,"218":-1.4743170738220215,"219":0.720272958278656,"220":0.6612808108329773,"221":-0.832693338394165,"222":-0.9319097995758057,"223":-1.0553905963897705,"224":0.3453628122806549,"225":1.081757664680481,"226":-0.15909001231193542,"227":-0.5393319725990295,"228":2.2113893032073975,"229":1.7648636102676392,"230":2.8406777381896973,"231":-0.7293469905853271,"232":-0.6892977356910706,"233":-1.5065085887908936,"234":0.42752543091773987,"235":-0.8396563529968262,"236":-0.951658308506012,"237":-0.0903889611363411,"238":-0.42387229204177856,"239":1.9033048152923584,"240":1.8165518045425415,"241":0.8630316853523254,"242":0.9751553535461426,"243":1.9974924325942993,"244":-0.1899835765361786,"245":1.1314189434051514,"246":0.13668890297412872,"247":0.8018115758895874,"248":-0.0518682636320591,"249":-1.783231496810913,"250":-0.6150696873664856,"251":-0.05961441621184349,"252":-0.7114760279655457,"253":0.38220107555389404,"254":-0.3470137119293213,"255":-1.6516375541687012,"256":0.8243025541305542,"257":-0.18746940791606903,"258":-1.9739267826080322,"259":0.32099369168281555,"260":-0.9297934174537659,"261":0.20719864964485168,"262":0.2555624842643738,"263":0.938421368598938,"264":1.2365325689315796,"265":-0.3643903136253357,"266":-0.29535749554634094,"267":-0.02109992876648903,"268":0.018601667135953903,"269":-0.3344239592552185,"270":0.9410802721977234,"271":1.4633550643920898,"272":-0.539755642414093,"273":-0.5979558229446411,"274":-0.6371634602546692,"275":-0.41763946413993835,"276":-0.3192289471626282,"277":-0.0904117226600647,"278":1.1411733627319336,"279":-0.7043485045433044,"280":1.967653751373291,"281":0.8853011727333069,"282":-1.2839784622192383,"283":-2.003767490386963,"284":-0.04845692962408066,"285":-0.22816045582294464,"286":0.08376665413379669,"287":1.7009369134902954,"288":-0.30509525537490845,"289":-0.03604518994688988,"290":0.06566087156534195,"291":-0.6233975291252136,"292":0.4471052587032318,"293":0.7203360199928284,"294":-0.5245129466056824,"295":0.11965085566043854,"296":-0.29638180136680603,"297":0.047333862632513046,"298":1.4665950536727905,"299":0.937254786491394,"300":-0.16308502852916718,"301":0.011271428316831589,"302":0.31919121742248535,"303":1.6195610761642456,"304":-0.7462568283081055,"305":1.4282344579696655,"306":-1.011216402053833,"307":1.241147756576538,"308":-0.6136565208435059,"309":-0.17907904088497162,"310":-0.5504084825515747,"311":0.7405763268470764,"312":1.4619771242141724,"313":-0.4819931983947754,"314":-0.8948577046394348,"315":0.7836730480194092,"316":-0.2263341248035431,"317":-1.0554704666137695,"318":0.40477490425109863,"319":0.8373631238937378,"320":-0.6040314435958862,"321":0.8403183221817017,"322":0.549000084400177,"323":-0.22790436446666718,"324":-2.0548365116119385,"325":1.6062884330749512,"326":0.04380616173148155,"327":-1.9996423721313477,"328":-0.4199807643890381,"329":-0.037550635635852814,"330":0.06703228503465652,"331":0.44034984707832336,"332":2.318051338195801,"333":0.8683209419250488,"334":1.1032761335372925,"335":1.433772325515747,"336":1.8307349681854248,"337":0.13433004915714264,"338":-0.13746377825737,"339":-1.3092765808105469,"340":-0.012220724485814571,"341":0.027782166376709938,"342":-0.8859667778015137,"343":-0.7597578167915344,"344":1.5974876880645752,"345":1.6843011379241943,"346":-1.4584064483642578,"347":-0.32956019043922424,"348":-0.776910126209259,"349":-0.35787200927734375,"350":-1.2474216222763062,"351":-0.08712015300989151,"352":1.7151305675506592,"353":0.3040488660335541,"354":1.2467312812805176,"355":1.626859426498413,"356":0.7314659953117371,"357":4.5457282066345215,"358":-0.33788666129112244,"359":-0.26372283697128296,"360":-0.11934772878885269,"361":0.3985261619091034,"362":-1.4168778657913208,"363":2.164609432220459,"364":-0.12234564870595932,"365":0.3100990951061249,"366":1.0161893367767334,"367":1.195793867111206,"368":-0.8058315515518188,"369":-0.2510654628276825,"370":1.07957124710083,"371":0.5055230855941772,"372":-0.26433083415031433,"373":0.6367169618606567,"374":-1.1995619535446167,"375":-0.1499532014131546,"376":0.27200832962989807,"377":-0.8188174962997437,"378":-0.45355159044265747,"379":1.00762939453125,"380":-1.2757337093353271,"381":1.1361075639724731,"382":0.3139581084251404,"383":0.4614059627056122,"384":0.18548895418643951,"385":0.7886064052581787,"386":-0.7621303796768188,"387":-0.12149148434400558,"388":1.786322832107544,"389":0.29977163672447205,"390":0.9691252708435059,"391":-0.36287376284599304,"392":-2.045780897140503,"393":-0.1293456107378006,"394":0.5874677896499634,"395":-1.7800103425979614,"396":-1.6866719722747803,"397":2.0811686515808105,"398":-0.6841014623641968,"399":-0.5715886950492859,"400":1.3322272300720215,"401":2.990593910217285,"402":-0.4073903262615204,"403":-0.31872260570526123,"404":1.1726744174957275,"405":0.16455256938934326,"406":-1.153045654296875,"407":-1.4782888889312744,"408":-1.4791685342788696,"409":1.19121253490448,"410":-1.151046872138977,"411":-0.5254063010215759,"412":0.9326726198196411,"413":-2.014707326889038,"414":-0.7171651124954224,"415":0.5849393606185913,"416":-0.2175428867340088,"417":-2.2774384021759033,"418":-1.3495699167251587,"419":1.9581708908081055,"420":-0.6247319579124451,"421":-0.7280027270317078,"422":-0.4977407157421112,"423":-0.5984034538269043,"424":0.341172456741333,"425":0.6105976104736328,"426":-0.531112790107727,"427":0.16030892729759216,"428":-0.21725156903266907,"429":-0.7337271571159363,"430":1.4241312742233276,"431":1.6221027374267578,"432":2.045172691345215,"433":-3.0433101654052734,"434":-0.12120185047388077,"435":1.4234813451766968,"436":0.14093872904777527,"437":0.860225260257721,"438":-0.37818238139152527,"439":0.5528417229652405,"440":1.4169201850891113,"441":-1.0035784244537354,"442":-0.9682297110557556,"443":-0.7615084648132324,"444":-1.1008672714233398,"445":0.3400547206401825,"446":-0.11129092425107956,"447":-1.1971160173416138,"448":0.38549184799194336,"449":-0.332340806722641,"450":0.009402969852089882,"451":0.35141366720199585,"452":-0.7878325581550598,"453":0.22788237035274506,"454":1.1495254039764404,"455":1.5916839838027954,"456":-1.1983522176742554,"457":0.9753961563110352,"458":0.8330139517784119,"459":0.41436946392059326,"460":-1.2525259256362915,"461":-0.6839292645454407,"462":-0.3606734573841095,"463":1.6521207094192505,"464":-1.9399162530899048,"465":-2.3537724018096924,"466":1.1497201919555664,"467":-1.2270324230194092,"468":-0.30516260862350464,"469":1.5006943941116333,"470":-0.560401201248169,"471":-0.029103251174092293,"472":0.5868960618972778,"473":0.80623859167099,"474":1.3909441232681274,"475":-1.0976941585540771,"476":0.49900391697883606,"477":0.3532507121562958,"478":1.2853909730911255,"479":0.27760636806488037,"480":1.5763968229293823,"481":0.3332765996456146,"482":-0.4695136249065399,"483":-1.391709804534912,"484":-0.47628313302993774,"485":-1.462996244430542,"486":1.1828149557113647,"487":-1.172601580619812,"488":-0.39151641726493835,"489":0.22569173574447632,"490":1.8635363578796387,"491":0.17841759324073792,"492":-0.636648952960968,"493":0.778737485408783,"494":1.3046687841415405,"495":0.43003904819488525,"496":-0.10903101414442062,"497":0.41814136505126953,"498":-0.7953178882598877,"499":0.10661669820547104,"500":-0.9841751456260681,"501":-0.08685304969549179,"502":0.8827007412910461,"503":0.5300688743591309,"504":0.5580855011940002,"505":-0.6678897738456726,"506":0.3275502026081085,"507":-0.48226866126060486,"508":-0.4289235472679138,"509":0.5949548482894897,"510":-0.7728637456893921,"511":0.05822357162833214,"512":0.36856308579444885,"513":0.3599034547805786,"514":1.9067420959472656,"515":1.8305569887161255,"516":-0.8825788497924805,"517":-2.193634510040283,"518":-1.801228404045105,"519":-0.99925696849823,"520":-1.7424535751342773,"521":-0.703635573387146,"522":-1.8989628553390503,"523":-1.4055267572402954,"524":-1.3687472343444824,"525":-1.709679126739502,"526":1.2072365283966064,"527":1.6535314321517944,"528":-0.8431136012077332,"529":-1.6048290729522705,"530":-1.186765432357788,"531":-0.7151450514793396,"532":1.1237773895263672,"533":0.2199818193912506,"534":2.1773295402526855,"535":-0.7072080373764038,"536":0.6147207021713257,"537":1.8709957599639893,"538":1.383129596710205,"539":-1.707589030265808,"540":0.0843808576464653,"541":0.48060283064842224,"542":-1.6019610166549683,"543":0.9599408507347107,"544":-2.641583204269409,"545":-0.9704635143280029,"546":-0.774275004863739,"547":0.550180196762085,"548":0.9256178140640259,"549":-1.1123281717300415,"550":1.7698944807052612,"551":0.33553460240364075,"552":0.46882733702659607,"553":-0.7952244281768799,"554":2.2164549827575684,"555":-2.309567928314209,"556":-0.43945392966270447,"557":-0.5031470656394958,"558":-1.2996635437011719,"559":1.334168553352356,"560":0.3999250829219818,"561":-0.329582154750824,"562":0.3538697361946106,"563":-0.12239285558462143,"564":-0.575954020023346,"565":-0.8543151617050171,"566":1.3626441955566406,"567":0.5213428735733032,"568":0.0673728883266449,"569":1.784209132194519,"570":1.3364267349243164,"571":-0.4469732940196991,"572":-0.5121526718139648,"573":-1.9092565774917603,"574":0.000136647024191916,"575":-0.08165589720010757,"576":-1.398589015007019,"577":-0.10688923299312592,"578":0.39824000000953674,"579":0.031481385231018066,"580":0.5419798493385315,"581":2.4534785747528076,"582":1.4415441751480103,"583":-0.5365402102470398,"584":1.4287527799606323,"585":0.5043477416038513,"586":0.18773016333580017,"587":0.7664022445678711,"588":-0.17008954286575317,"589":0.8836061954498291,"590":2.042494773864746,"591":-1.4966952800750732,"592":-1.2405602931976318,"593":-0.6655059456825256,"594":-1.781835913658142,"595":0.17272451519966125,"596":-0.19911213219165802,"597":-2.153348207473755,"598":-1.2791752815246582,"599":0.23673970997333527}},"forgetHidden":{"rows":20,"columns":20,"weights":{"0":0.691939651966095,"1":0.16825777292251587,"2":0.46314454078674316,"3":-0.7049160599708557,"4":0.19212310016155243,"5":-0.19504809379577637,"6":-1.2820793390274048,"7":0.20962120592594147,"8":-0.6699545979499817,"9":-0.08150158077478409,"10":0.4798802137374878,"11":-0.056447625160217285,"12":-0.5186197757720947,"13":0.037843283265829086,"14":0.21171097457408905,"15":-0.37289658188819885,"16":-0.1695551574230194,"17":0.6148261427879333,"18":0.3115212023258209,"19":-0.3540675938129425,"20":-0.6302651762962341,"21":-0.26631906628608704,"22":-0.3108016848564148,"23":-1.6353389024734497,"24":0.7340500950813293,"25":-0.36775463819503784,"26":-0.1849145144224167,"27":-0.706616222858429,"28":-0.4365937113761902,"29":-0.4149109125137329,"30":-0.681835949420929,"31":0.9585493803024292,"32":-0.1386251002550125,"33":-0.34808406233787537,"34":-0.21699027717113495,"35":-0.10242554545402527,"36":0.47490906715393066,"37":0.3907107710838318,"38":-0.7753523588180542,"39":-0.3729560077190399,"40":-0.5629129409790039,"41":0.4662213623523712,"42":0.7423540949821472,"43":-0.3249237537384033,"44":-0.40098392963409424,"45":0.015377908945083618,"46":-0.41955918073654175,"47":-0.6379776000976562,"48":-0.587453305721283,"49":-0.025008557364344597,"50":-0.22322361171245575,"51":0.033628709614276886,"52":0.07007448375225067,"53":0.6371442675590515,"54":-0.004893769975751638,"55":-1.9561508893966675,"56":0.15831509232521057,"57":-0.5061999559402466,"58":-1.0026057958602905,"59":-1.1661732196807861,"60":1.1701768636703491,"61":0.47894346714019775,"62":0.24168376624584198,"63":1.563981533050537,"64":-0.5503094792366028,"65":-0.5455679297447205,"66":-0.19548287987709045,"67":0.2072751671075821,"68":-0.14427006244659424,"69":-1.5020983219146729,"70":0.7672988772392273,"71":0.47399118542671204,"72":-0.5490052103996277,"73":1.6473534107208252,"74":0.18272817134857178,"75":0.7620956301689148,"76":0.5953837633132935,"77":-1.2017847299575806,"78":-0.16846297681331635,"79":0.40102070569992065,"80":-1.3366656303405762,"81":-0.24569427967071533,"82":0.21259453892707825,"83":1.6635923385620117,"84":-1.572506308555603,"85":-0.6340827941894531,"86":0.5045603513717651,"87":-0.377394437789917,"88":-2.401322364807129,"89":-0.7008852958679199,"90":-0.958134651184082,"91":1.4121475219726562,"92":-0.18137823045253754,"93":2.527843713760376,"94":-1.0827128887176514,"95":-1.080069661140442,"96":-0.22428470849990845,"97":-0.2869691252708435,"98":-1.518473505973816,"99":1.816100835800171,"100":0.34047430753707886,"101":0.22874300181865692,"102":-0.32520419359207153,"103":0.9928972721099854,"104":-0.09456780552864075,"105":-0.34308016300201416,"106":0.24157412350177765,"107":0.3563428521156311,"108":-1.1035703420639038,"109":-0.31426239013671875,"110":-0.5973547101020813,"111":0.25175368785858154,"112":0.6877457499504089,"113":-0.6049857139587402,"114":0.7179674506187439,"115":0.36560365557670593,"116":-0.5179948210716248,"117":-0.13224273920059204,"118":0.29219570755958557,"119":-1.0656358003616333,"120":0.6853076219558716,"121":1.174752950668335,"122":1.0848115682601929,"123":1.910220980644226,"124":-0.043121661990880966,"125":-0.06987115740776062,"126":-1.0505566596984863,"127":-2.7026777267456055,"128":-0.16997721791267395,"129":-0.7925819158554077,"130":0.5861167311668396,"131":0.15965422987937927,"132":-0.9261161684989929,"133":-0.1943187713623047,"134":-0.5073202848434448,"135":-0.20029352605342865,"136":-0.16883429884910583,"137":-1.0024019479751587,"138":0.1001286432147026,"139":0.17636899650096893,"140":0.5917274951934814,"141":-0.24167297780513763,"142":0.45837390422821045,"143":-0.46710240840911865,"144":-0.15785545110702515,"145":-0.16575036942958832,"146":-0.8288354277610779,"147":2.168745279312134,"148":-0.19248788058757782,"149":-1.8153263330459595,"150":-0.5655855536460876,"151":0.05443713814020157,"152":0.032468244433403015,"153":1.6259758472442627,"154":-0.10877236723899841,"155":-0.6007437705993652,"156":0.43015119433403015,"157":-0.20067623257637024,"158":-1.2415090799331665,"159":-0.6076788306236267,"160":-0.8405338525772095,"161":0.6085115671157837,"162":0.3281586766242981,"163":-0.5996137261390686,"164":0.7921622395515442,"165":1.1285359859466553,"166":0.6521416306495667,"167":-1.307926893234253,"168":-0.23499317467212677,"169":0.6584720015525818,"170":-1.0871745347976685,"171":-0.5170178413391113,"172":0.46014776825904846,"173":-0.8874941468238831,"174":0.3496643304824829,"175":-0.15481138229370117,"176":-1.2679646015167236,"177":-0.47496604919433594,"178":1.3176188468933105,"179":0.16552557051181793,"180":-2.0581603050231934,"181":0.10675199329853058,"182":0.43951165676116943,"183":-4.214335918426514,"184":-0.4612467586994171,"185":-2.2200160026550293,"186":1.9560357332229614,"187":1.6840356588363647,"188":-0.5590368509292603,"189":-0.9969366192817688,"190":-0.1851360946893692,"191":-0.592583954334259,"192":0.5701574683189392,"193":0.062139395624399185,"194":0.3618519902229309,"195":-1.047210931777954,"196":-0.7075695395469666,"197":-0.18439288437366486,"198":0.2017020881175995,"199":-0.4258108139038086,"200":0.2543809115886688,"201":-0.8348740935325623,"202":1.3866722583770752,"203":0.3839428126811981,"204":-0.9987972974777222,"205":0.38033583760261536,"206":-0.6904038190841675,"207":-0.264974981546402,"208":-0.38983097672462463,"209":-0.820897102355957,"210":-1.5305373668670654,"211":-0.19538328051567078,"212":0.11030382663011551,"213":0.5772640109062195,"214":0.6840764880180359,"215":-0.582222044467926,"216":0.40011289715766907,"217":0.4562521278858185,"218":-0.770328164100647,"219":-0.18730978667736053,"220":0.7258399724960327,"221":0.37238216400146484,"222":0.9256508350372314,"223":0.2745733857154846,"224":-0.47007399797439575,"225":0.420000821352005,"226":0.15567529201507568,"227":0.3835866153240204,"228":-0.6612923741340637,"229":0.29484349489212036,"230":-0.46890246868133545,"231":0.6503784656524658,"232":-0.04356924071907997,"233":-0.7828905582427979,"234":0.600854754447937,"235":-0.2574739158153534,"236":-0.040765512734651566,"237":0.7311300039291382,"238":-0.2569916546344757,"239":0.5735787749290466,"240":0.38589608669281006,"241":-0.10180283337831497,"242":0.1883108764886856,"243":-0.00013070621935185045,"244":0.20729433000087738,"245":-0.19187815487384796,"246":-0.24200433492660522,"247":0.5562824010848999,"248":-0.3770889937877655,"249":1.0162183046340942,"250":0.025696612894535065,"251":0.20566311478614807,"252":-0.37867429852485657,"253":-0.1634543389081955,"254":-0.6411436796188354,"255":-1.1406689882278442,"256":0.4204320013523102,"257":-0.11535156518220901,"258":-0.032661646604537964,"259":0.27876904606819153,"260":1.4033887386322021,"261":0.4934893548488617,"262":0.8492984771728516,"263":-0.31133148074150085,"264":-0.9734501838684082,"265":-0.06932025402784348,"266":-1.1049083471298218,"267":-2.5126097202301025,"268":-0.20119768381118774,"269":-1.0307976007461548,"270":0.010217150673270226,"271":-0.2793406844139099,"272":-0.03508710116147995,"273":-0.9312916994094849,"274":0.6110565066337585,"275":-0.9600694179534912,"276":-0.7959861755371094,"277":-0.043543558567762375,"278":-0.6974419951438904,"279":-0.9315638542175293,"280":-0.1694367527961731,"281":0.13514667749404907,"282":0.5697524547576904,"283":0.24003389477729797,"284":-0.3400166630744934,"285":1.0080273151397705,"286":1.1477131843566895,"287":0.5222936272621155,"288":-0.3405556082725525,"289":0.7322026491165161,"290":-0.5094897150993347,"291":0.11998994648456573,"292":-0.11714896559715271,"293":0.13872835040092468,"294":-1.2036230564117432,"295":0.5541824698448181,"296":-0.5445898175239563,"297":0.2264038622379303,"298":-0.22764381766319275,"299":0.6796992421150208,"300":-0.06985588371753693,"301":-0.4752362072467804,"302":1.9044936895370483,"303":0.07500728219747543,"304":0.05922280624508858,"305":-0.06967446208000183,"306":-0.29925772547721863,"307":0.6265084743499756,"308":-0.041659072041511536,"309":0.9599979519844055,"310":0.2851298749446869,"311":-0.14340482652187347,"312":-0.09024957567453384,"313":-0.2809261679649353,"314":-0.6244505643844604,"315":-0.08614273369312286,"316":0.10540735721588135,"317":0.5487529635429382,"318":1.1474039554595947,"319":0.534799337387085,"320":0.26786184310913086,"321":0.18572913110256195,"322":-0.28824201226234436,"323":0.32609421014785767,"324":0.49695539474487305,"325":-0.08963563293218613,"326":-0.22873269021511078,"327":-0.2266632318496704,"328":-1.4661606550216675,"329":-0.0033637003507465124,"330":0.8744616508483887,"331":-0.1251441240310669,"332":-0.29547321796417236,"333":0.34015610814094543,"334":0.05514455586671829,"335":-0.16383789479732513,"336":0.7443499565124512,"337":0.1389537751674652,"338":-0.7163398265838623,"339":0.006754511967301369,"340":-0.400231271982193,"341":1.0693163871765137,"342":0.2107224464416504,"343":0.7006539106369019,"344":-0.0046096364967525005,"345":-0.880555272102356,"346":-0.05545733496546745,"347":-0.4089670181274414,"348":0.24661420285701752,"349":-0.7318829894065857,"350":-0.47381794452667236,"351":0.9228585958480835,"352":1.8472306728363037,"353":0.6595767736434937,"354":0.1706218123435974,"355":-0.15470905601978302,"356":-0.3375767469406128,"357":-1.1949100494384766,"358":-0.17822957038879395,"359":-0.21202009916305542,"360":-0.48142799735069275,"361":-0.03445909917354584,"362":-0.5678202509880066,"363":-0.7210922241210938,"364":1.3991166353225708,"365":0.0566578134894371,"366":-0.8589064478874207,"367":0.007835084572434425,"368":0.4434360861778259,"369":0.7692834734916687,"370":-0.1399388164281845,"371":0.10407715290784836,"372":0.13217616081237793,"373":-0.032208699733018875,"374":0.041605036705732346,"375":-0.7131895422935486,"376":0.045667726546525955,"377":1.0837923288345337,"378":2.050104856491089,"379":0.06777980923652649,"380":0.012196066789329052,"381":1.8391821384429932,"382":2.3007214069366455,"383":-1.785829782485962,"384":-0.11086834967136383,"385":-0.921112060546875,"386":-0.8599078059196472,"387":-2.430124044418335,"388":0.3496699929237366,"389":0.1105843186378479,"390":-1.98854660987854,"391":-2.1084609031677246,"392":0.1677522361278534,"393":-1.422574758529663,"394":0.7997415661811829,"395":-1.1033742427825928,"396":0.3713536262512207,"397":-1.8051897287368774,"398":-2.9176642894744873,"399":0.39719173312187195}},"forgetBias":{"rows":20,"columns":1,"weights":{"0":0,"1":0,"2":0,"3":0,"4":0,"5":0,"6":0,"7":0,"8":0,"9":0,"10":0,"11":0,"12":0,"13":0,"14":0,"15":0,"16":0,"17":0,"18":0,"19":0}},"outputMatrix":{"rows":20,"columns":30,"weights":{"0":3.6892874240875244,"1":1.1950074434280396,"2":-0.6347150206565857,"3":-0.8312008380889893,"4":2.1898913383483887,"5":-1.5060663223266602,"6":0.6827512979507446,"7":0.4844154715538025,"8":1.0182702541351318,"9":-1.4876614809036255,"10":1.819664478302002,"11":0.009717678651213646,"12":-1.072556972503662,"13":-0.9012331962585449,"14":3.2281439304351807,"15":0.35617953538894653,"16":1.315641164779663,"17":1.1478244066238403,"18":-2.100163698196411,"19":1.8095206022262573,"20":-0.975843608379364,"21":-2.5181210041046143,"22":0.9233844876289368,"23":-1.0707852840423584,"24":1.626268982887268,"25":-0.020300043746829033,"26":-2.3712117671966553,"27":2.0706777572631836,"28":2.100471019744873,"29":1.6304768323898315,"30":0.4653583765029907,"31":0.1423557996749878,"32":-2.1385018825531006,"33":0.8901509642601013,"34":0.8401206731796265,"35":0.5871659517288208,"36":-2.4821507930755615,"37":0.844172477722168,"38":-1.23366117477417,"39":-0.0173106137663126,"40":-3.545264482498169,"41":-1.4581197500228882,"42":-0.25689229369163513,"43":-0.02118030935525894,"44":-0.360266774892807,"45":0.572603166103363,"46":0.25237616896629333,"47":1.9443819522857666,"48":1.1923255920410156,"49":-3.061175584793091,"50":1.5736429691314697,"51":-1.6735560894012451,"52":-3.8364081382751465,"53":-0.9187102913856506,"54":0.6941309571266174,"55":1.6777641773223877,"56":-1.2830718755722046,"57":-1.4156893491744995,"58":1.1473817825317383,"59":-2.010026216506958,"60":1.0765148401260376,"61":3.915771484375,"62":0.06514577567577362,"63":1.728868842124939,"64":-1.7042689323425293,"65":2.2607738971710205,"66":-0.07776237279176712,"67":2.3144941329956055,"68":1.1874799728393555,"69":0.7218518257141113,"70":-3.261967182159424,"71":1.7663378715515137,"72":0.5726965665817261,"73":1.7535643577575684,"74":-0.20708578824996948,"75":-0.8330653309822083,"76":2.395381212234497,"77":-0.5565615892410278,"78":-2.844517469406128,"79":2.5469586849212646,"80":-0.49054545164108276,"81":-1.3964358568191528,"82":-0.1469086855649948,"83":0.6060872673988342,"84":-0.22207827866077423,"85":-0.45245781540870667,"86":1.478929042816162,"87":-2.0774149894714355,"88":0.5327263474464417,"89":0.9923188090324402,"90":-0.13025213778018951,"91":2.82804274559021,"92":1.0470993518829346,"93":1.8213661909103394,"94":0.6445717215538025,"95":-1.4017705917358398,"96":2.2912399768829346,"97":2.4282422065734863,"98":0.2740362286567688,"99":-1.2008217573165894,"100":1.301265001296997,"101":1.2499768733978271,"102":1.0995430946350098,"103":-1.5022482872009277,"104":-1.6539103984832764,"105":0.5267698764801025,"106":-1.3823705911636353,"107":-0.5395647287368774,"108":-3.222400426864624,"109":1.3657879829406738,"110":1.3560700416564941,"111":-2.4207098484039307,"112":-2.535494565963745,"113":-0.29455700516700745,"114":0.8703503012657166,"115":1.2085275650024414,"116":1.7734333276748657,"117":1.7469335794448853,"118":2.3663039207458496,"119":-1.2104992866516113,"120":-0.1794222593307495,"121":-2.6613965034484863,"122":-3.3892276287078857,"123":0.493972510099411,"124":1.1345765590667725,"125":-0.23612424731254578,"126":-0.9278625249862671,"127":-1.7855664491653442,"128":0.8542003035545349,"129":-1.2547630071640015,"130":-0.22456377744674683,"131":1.3609483242034912,"132":-2.4586873054504395,"133":1.746188998222351,"134":-0.41419491171836853,"135":-3.225912570953369,"136":1.9863241910934448,"137":-0.21599598228931427,"138":1.0123941898345947,"139":1.4374630451202393,"140":-0.5482812523841858,"141":0.5611404180526733,"142":-0.2384536862373352,"143":0.8614108562469482,"144":0.2469610720872879,"145":-1.40092933177948,"146":3.1864640712738037,"147":-0.5505383610725403,"148":1.6441081762313843,"149":1.6990739107131958,"150":2.8780059814453125,"151":2.62041974067688,"152":1.4829694032669067,"153":-1.1183066368103027,"154":-1.6849486827850342,"155":-1.1032376289367676,"156":-1.1842621564865112,"157":-0.48197636008262634,"158":2.2487831115722656,"159":3.1956043243408203,"160":0.6132675409317017,"161":0.9229174852371216,"162":1.2240041494369507,"163":-2.2447168827056885,"164":-0.8096498847007751,"165":1.65484619140625,"166":-2.8984923362731934,"167":2.624337911605835,"168":-1.5328872203826904,"169":-3.2525999546051025,"170":0.40126869082450867,"171":-1.516120433807373,"172":0.010807367973029613,"173":0.7547668814659119,"174":-0.2717939615249634,"175":1.4290671348571777,"176":-1.4144026041030884,"177":-2.2751359939575195,"178":0.39102640748023987,"179":2.4312336444854736,"180":1.4418209791183472,"181":3.653510570526123,"182":-0.7579203844070435,"183":1.871443510055542,"184":0.7036645412445068,"185":0.04775712266564369,"186":-1.6787527799606323,"187":1.5673967599868774,"188":4.003666400909424,"189":-0.4466187357902527,"190":0.8739373087882996,"191":3.1530873775482178,"192":-2.49360990524292,"193":0.5639085173606873,"194":-1.0382920503616333,"195":-1.2211941480636597,"196":-0.5724815726280212,"197":0.7136718034744263,"198":-0.9744313955307007,"199":1.6067100763320923,"200":-1.8235732316970825,"201":-0.4849656820297241,"202":1.0899378061294556,"203":0.972130298614502,"204":-0.5225070714950562,"205":-0.24933859705924988,"206":-0.7151792049407959,"207":-0.7395473718643188,"208":-0.5481001734733582,"209":2.9831814765930176,"210":2.9706437587738037,"211":2.1017277240753174,"212":1.9368071556091309,"213":1.557640552520752,"214":-1.295467495918274,"215":0.5372127890586853,"216":0.23862046003341675,"217":-0.8124019503593445,"218":2.9720993041992188,"219":-2.953895092010498,"220":-3.272423028945923,"221":-2.361994981765747,"222":-2.266688346862793,"223":-1.5383697748184204,"224":3.86905574798584,"225":-0.019407596439123154,"226":-0.0672699511051178,"227":-0.208322212100029,"228":-2.0519464015960693,"229":-0.7685832381248474,"230":-1.292559266090393,"231":-3.0506722927093506,"232":1.8378660678863525,"233":2.3171167373657227,"234":3.6251049041748047,"235":1.1734910011291504,"236":0.287141352891922,"237":2.628469467163086,"238":1.279679775238037,"239":-0.7026429176330566,"240":2.724167585372925,"241":-0.008981187827885151,"242":-1.4099305868148804,"243":-0.5024608969688416,"244":-0.8343760371208191,"245":-0.09082157909870148,"246":-0.13962829113006592,"247":-1.0729941129684448,"248":-3.249021053314209,"249":0.2721577286720276,"250":2.389476776123047,"251":0.13755114376544952,"252":-1.3314833641052246,"253":-3.0177478790283203,"254":6.156487464904785,"255":2.0813469886779785,"256":0.572702944278717,"257":0.03112618438899517,"258":-2.680330991744995,"259":3.515514612197876,"260":1.5394845008850098,"261":-0.5665947198867798,"262":-0.5958935022354126,"263":-3.309699296951294,"264":-0.1409199833869934,"265":-0.8567856550216675,"266":-0.4775947332382202,"267":0.6125128269195557,"268":-0.00349937635473907,"269":-2.4095699787139893,"270":1.5818098783493042,"271":1.0073996782302856,"272":2.11606764793396,"273":1.5731924772262573,"274":-0.43010279536247253,"275":1.9711841344833374,"276":1.7394644021987915,"277":4.641138076782227,"278":0.746500551700592,"279":0.3574545681476593,"280":0.4644767642021179,"281":0.41595157980918884,"282":0.5598655939102173,"283":-1.7859866619110107,"284":-2.0759129524230957,"285":0.5094172358512878,"286":-3.8157074451446533,"287":-2.0676519870758057,"288":0.6073567867279053,"289":-0.005907226353883743,"290":1.6020238399505615,"291":-2.3900182247161865,"292":-0.41370365023612976,"293":-0.028111975640058517,"294":0.31286218762397766,"295":1.5027071237564087,"296":0.008964375592768192,"297":-0.11007504165172577,"298":-1.7211847305297852,"299":-0.3289828896522522,"300":0.7940419316291809,"301":2.411529779434204,"302":-1.598631501197815,"303":-0.6070877909660339,"304":-2.3155524730682373,"305":-0.04415285587310791,"306":2.7028870582580566,"307":0.09071346372365952,"308":0.8394691944122314,"309":-1.2284482717514038,"310":-1.8597930669784546,"311":-2.277754068374634,"312":0.37872248888015747,"313":2.1556711196899414,"314":0.13499395549297333,"315":-1.4756804704666138,"316":0.01018217671662569,"317":0.5722917318344116,"318":-0.11041511595249176,"319":-0.10693002492189407,"320":0.26064449548721313,"321":-1.7458311319351196,"322":-0.38875702023506165,"323":0.6636325716972351,"324":2.072308301925659,"325":1.6994197368621826,"326":-1.015716791152954,"327":0.2511068284511566,"328":0.6117051839828491,"329":2.2218382358551025,"330":2.2278475761413574,"331":0.720775306224823,"332":-0.8079510927200317,"333":-0.07523665577173233,"334":-0.6952362060546875,"335":1.6617213487625122,"336":3.5216569900512695,"337":0.9206745028495789,"338":2.030341148376465,"339":-3.7344260215759277,"340":-0.16469459235668182,"341":2.005147933959961,"342":-0.4728383421897888,"343":-0.09103821218013763,"344":-0.2152264565229416,"345":0.7468478679656982,"346":1.414329171180725,"347":-3.5000383853912354,"348":0.0011254422133788466,"349":0.038480572402477264,"350":-1.3564202785491943,"351":-2.0447633266448975,"352":-0.8667299747467041,"353":1.0099574327468872,"354":-0.9063425064086914,"355":1.5830292701721191,"356":0.30205389857292175,"357":1.0880606174468994,"358":0.8873395323753357,"359":-2.4897589683532715,"360":1.7506434917449951,"361":-0.8481231331825256,"362":0.1348130851984024,"363":1.7459592819213867,"364":-0.9184709787368774,"365":-1.4273436069488525,"366":-1.1818876266479492,"367":2.8425259590148926,"368":0.3842458426952362,"369":-1.85170578956604,"370":2.3311574459075928,"371":0.6375462412834167,"372":1.662593126296997,"373":-1.1427007913589478,"374":1.5278403759002686,"375":0.917712926864624,"376":-2.0644187927246094,"377":-0.02605368383228779,"378":1.3246537446975708,"379":-2.3915767669677734,"380":1.019757866859436,"381":-1.7605817317962646,"382":0.21168100833892822,"383":0.9786622524261475,"384":0.26751708984375,"385":0.940811276435852,"386":0.7934600710868835,"387":-0.15148495137691498,"388":2.327382802963257,"389":0.6289451718330383,"390":2.273146390914917,"391":-1.4304054975509644,"392":-0.24020808935165405,"393":-0.49943387508392334,"394":-0.5196387767791748,"395":-0.67067950963974,"396":-0.14850105345249176,"397":-2.939235210418701,"398":-1.9294391870498657,"399":2.112429618835449,"400":1.495434045791626,"401":2.000250816345215,"402":-1.275273084640503,"403":0.7313454747200012,"404":-0.2944484353065491,"405":-2.6814558506011963,"406":1.2807438373565674,"407":0.04209131374955177,"408":-0.04131479561328888,"409":3.646136999130249,"410":2.228902578353882,"411":-0.11968012899160385,"412":3.4222989082336426,"413":-0.5564639568328857,"414":-0.010612566024065018,"415":-4.850430488586426,"416":0.20422960817813873,"417":-0.47788599133491516,"418":0.27388545870780945,"419":2.5461363792419434,"420":0.8365001678466797,"421":-0.9525352716445923,"422":-0.48305484652519226,"423":0.46671101450920105,"424":-1.1674761772155762,"425":0.28178566694259644,"426":1.7580302953720093,"427":2.037120819091797,"428":0.3602266013622284,"429":-0.33906784653663635,"430":-1.537175178527832,"431":-2.482343912124634,"432":-2.25534725189209,"433":-0.17900730669498444,"434":-1.4046088457107544,"435":-2.439807415008545,"436":-0.9618980288505554,"437":-2.8627676963806152,"438":-1.2596516609191895,"439":0.17256446182727814,"440":1.338746190071106,"441":-0.6207945346832275,"442":-0.5779830813407898,"443":1.1209033727645874,"444":-0.06196198984980583,"445":1.392357349395752,"446":-2.7081799507141113,"447":-0.5508598685264587,"448":0.5567730665206909,"449":0.9425224661827087,"450":0.818587601184845,"451":-0.2657511234283447,"452":0.6159020066261292,"453":1.8230879306793213,"454":0.778960108757019,"455":4.443426609039307,"456":-3.4353268146514893,"457":3.702364444732666,"458":-0.48957541584968567,"459":0.10093528777360916,"460":-3.235813856124878,"461":1.5969431400299072,"462":2.5322141647338867,"463":-0.4658051133155823,"464":-0.3380335569381714,"465":-1.5954924821853638,"466":2.9598922729492188,"467":-3.0965383052825928,"468":1.2324576377868652,"469":1.274584412574768,"470":0.3221946954727173,"471":-1.1667327880859375,"472":-0.4072514474391937,"473":-4.525974750518799,"474":-2.1505701541900635,"475":0.356740802526474,"476":0.4680713415145874,"477":-0.05138390511274338,"478":0.038560763001441956,"479":0.12330085039138794,"480":1.1797707080841064,"481":-0.7327511310577393,"482":-0.9175667762756348,"483":-1.52830970287323,"484":-3.7449543476104736,"485":-0.3854249119758606,"486":0.025462083518505096,"487":-0.10815839469432831,"488":-1.7140647172927856,"489":-0.674742579460144,"490":1.3726980686187744,"491":0.2728579640388489,"492":1.3557710647583008,"493":-0.7666410803794861,"494":1.2651399374008179,"495":0.9402786493301392,"496":-0.16056495904922485,"497":-1.1039090156555176,"498":-0.38925468921661377,"499":0.8568275570869446,"500":-1.2755939960479736,"501":2.76836895942688,"502":1.1938879489898682,"503":-0.9640455842018127,"504":-2.0733354091644287,"505":-4.8695149421691895,"506":-0.24381069839000702,"507":-0.5822785496711731,"508":-0.020614776760339737,"509":2.4235196113586426,"510":-0.9346637725830078,"511":-2.369429349899292,"512":-0.2587052881717682,"513":2.298997163772583,"514":-3.6790127754211426,"515":2.3220317363739014,"516":-2.581906318664551,"517":-1.1231951713562012,"518":0.17787300050258636,"519":0.977582573890686,"520":-2.9793941974639893,"521":-1.3405059576034546,"522":2.3309223651885986,"523":-0.26436862349510193,"524":-0.5239414572715759,"525":2.087526798248291,"526":-0.33713608980178833,"527":1.3186309337615967,"528":2.8152952194213867,"529":-0.1672734171152115,"530":-1.7098029851913452,"531":2.4194552898406982,"532":0.2973077893257141,"533":0.18207743763923645,"534":-2.540548324584961,"535":-0.08857511729001999,"536":2.6154239177703857,"537":-0.3149610757827759,"538":-1.4348324537277222,"539":0.6941567063331604,"540":1.2029615640640259,"541":0.904047966003418,"542":1.9704432487487793,"543":-2.399249792098999,"544":0.6673544049263,"545":0.12276489287614822,"546":-1.9382160902023315,"547":-1.0402100086212158,"548":1.1758661270141602,"549":-1.648598313331604,"550":1.0914318561553955,"551":-1.4469456672668457,"552":-1.782187819480896,"553":1.8936896324157715,"554":1.7555441856384277,"555":-2.7076168060302734,"556":0.6645776629447937,"557":0.34541821479797363,"558":-0.8503297567367554,"559":-0.5292193293571472,"560":-2.4347636699676514,"561":-0.04998595267534256,"562":3.6084659099578857,"563":-1.7699050903320312,"564":1.2687218189239502,"565":-2.042370557785034,"566":-1.1245057582855225,"567":2.7857351303100586,"568":0.5826996564865112,"569":1.1498446464538574,"570":0.5498780012130737,"571":-1.599498987197876,"572":2.8995213508605957,"573":0.09329164773225784,"574":1.0807950496673584,"575":0.007078593596816063,"576":0.9316592216491699,"577":0.3628467619419098,"578":0.3700484037399292,"579":-1.3371893167495728,"580":-0.7263152003288269,"581":-0.14718285202980042,"582":-2.54129958152771,"583":1.2114696502685547,"584":-0.1540842354297638,"585":-4.445888519287109,"586":-0.9785370826721191,"587":1.7369061708450317,"588":-4.686609268188477,"589":1.0367403030395508,"590":2.5437936782836914,"591":1.2215213775634766,"592":0.5146632790565491,"593":2.35794734954834,"594":2.0719709396362305,"595":-1.0110633373260498,"596":0.21922555565834045,"597":0.6563534736633301,"598":-1.1407947540283203,"599":-0.6884320378303528}},"outputHidden":{"rows":20,"columns":20,"weights":{"0":0.6857906579971313,"1":0.15887118875980377,"2":-0.2583908438682556,"3":0.5889987945556641,"4":-0.47565141320228577,"5":-0.26925674080848694,"6":0.487689346075058,"7":1.2957074642181396,"8":-1.4801559448242188,"9":0.2763311564922333,"10":-0.4981403350830078,"11":-0.665955662727356,"12":1.063482403755188,"13":-0.6802352070808411,"14":-0.1394558697938919,"15":0.016052747145295143,"16":-1.9033056497573853,"17":0.25907033681869507,"18":-1.6161099672317505,"19":1.7303565740585327,"20":1.269324541091919,"21":-1.0856192111968994,"22":0.18710845708847046,"23":-1.4972928762435913,"24":2.319093704223633,"25":-1.0827488899230957,"26":0.22924229502677917,"27":0.2118765264749527,"28":0.8293878436088562,"29":-0.5740650296211243,"30":0.23351557552814484,"31":-0.10632346570491791,"32":-0.07086283713579178,"33":0.08238603919744492,"34":-1.138566017150879,"35":0.14841316640377045,"36":0.9922716617584229,"37":-2.0530333518981934,"38":-0.5549691915512085,"39":-0.009310144931077957,"40":-2.232748031616211,"41":-0.6813690066337585,"42":0.1864728480577469,"43":0.9142072200775146,"44":0.2405165731906891,"45":-0.6202923059463501,"46":0.00031191931338980794,"47":0.21663062274456024,"48":0.3894956409931183,"49":-2.1464991569519043,"50":0.7865067720413208,"51":-0.7230055332183838,"52":-0.5524548292160034,"53":-0.19306857883930206,"54":1.2698254585266113,"55":-2.8141672611236572,"56":0.1872125267982483,"57":-1.05266273021698,"58":0.04008021578192711,"59":0.3843693733215332,"60":-1.0301846265792847,"61":0.058136872947216034,"62":0.018200695514678955,"63":-1.611903429031372,"64":-0.40876108407974243,"65":-0.5947108864784241,"66":-0.9464477300643921,"67":-0.2669840455055237,"68":2.6515092849731445,"69":1.1159237623214722,"70":-0.228622704744339,"71":-0.5388561487197876,"72":-0.19721879065036774,"73":-0.4039281904697418,"74":-0.08391936123371124,"75":-0.5618988871574402,"76":0.809575617313385,"77":-0.37322455644607544,"78":-0.056847382336854935,"79":-0.9794846177101135,"80":-0.8015944957733154,"81":-1.1499184370040894,"82":0.14708098769187927,"83":-1.2353399991989136,"84":-1.150544285774231,"85":-0.6564055681228638,"86":2.4437005519866943,"87":-0.7599480748176575,"88":0.6523585915565491,"89":-1.1704976558685303,"90":0.15231817960739136,"91":0.4140654504299164,"92":0.7574480772018433,"93":-1.8185352087020874,"94":1.811316967010498,"95":-1.7407037019729614,"96":0.44557851552963257,"97":1.5164052248001099,"98":2.0262203216552734,"99":2.7828903198242188,"100":-0.018010053783655167,"101":0.26198896765708923,"102":-0.5224263072013855,"103":-1.9338890314102173,"104":1.1415760517120361,"105":0.3002775311470032,"106":0.9192731976509094,"107":-0.3050944209098816,"108":-0.25943347811698914,"109":3.3612172603607178,"110":-0.9963337779045105,"111":1.6610387563705444,"112":-0.6055284738540649,"113":-2.9897537231445312,"114":1.3329068422317505,"115":-0.8164397478103638,"116":-0.7608866691589355,"117":0.672351062297821,"118":-0.16267848014831543,"119":-0.1669335514307022,"120":1.481497049331665,"121":1.7506860494613647,"122":-0.6434067487716675,"123":2.357327699661255,"124":-0.4568553864955902,"125":-2.332930088043213,"126":-1.5354712009429932,"127":0.3458147644996643,"128":-1.59735107421875,"129":-0.07536260038614273,"130":-0.44472646713256836,"131":-0.7799848914146423,"132":-0.5062562227249146,"133":0.28534772992134094,"134":1.2624841928482056,"135":2.345463514328003,"136":0.13810478150844574,"137":-0.23627640306949615,"138":-1.2639092206954956,"139":0.5958064794540405,"140":-0.5660633444786072,"141":-0.8043129444122314,"142":1.0442752838134766,"143":1.8872820138931274,"144":2.0378096103668213,"145":1.8377201557159424,"146":0.9292829632759094,"147":2.2120838165283203,"148":0.9070236086845398,"149":1.342415690422058,"150":-0.45963501930236816,"151":-2.0488979816436768,"152":1.2445143461227417,"153":0.5100669860839844,"154":0.8506417274475098,"155":-2.4235646724700928,"156":1.4120174646377563,"157":0.90810626745224,"158":0.7656183242797852,"159":-0.8197081089019775,"160":1.195235252380371,"161":3.1003217697143555,"162":0.15032082796096802,"163":3.4208390712738037,"164":-5.397010326385498,"165":-3.4398040771484375,"166":0.9319456815719604,"167":2.84647274017334,"168":-1.378104329109192,"169":1.271410346031189,"170":-0.4833230972290039,"171":2.086442232131958,"172":-0.1854104995727539,"173":3.1438069343566895,"174":-1.395445466041565,"175":-1.1559381484985352,"176":-0.996863842010498,"177":0.19701747596263885,"178":-0.9489198923110962,"179":0.18221360445022583,"180":0.8997480273246765,"181":-0.9198048710823059,"182":0.15019969642162323,"183":-2.0726611614227295,"184":-0.5027117729187012,"185":-0.5653518438339233,"186":-1.0006256103515625,"187":1.022735595703125,"188":0.11396365612745285,"189":-1.4577794075012207,"190":0.027702948078513145,"191":0.7955445051193237,"192":1.4958856105804443,"193":0.08523134142160416,"194":1.1788395643234253,"195":-0.7664415240287781,"196":1.6923969984054565,"197":0.12521952390670776,"198":1.5395907163619995,"199":1.0956439971923828,"200":-0.6237632632255554,"201":0.7939695119857788,"202":-0.15122424066066742,"203":-1.2491551637649536,"204":0.5062111616134644,"205":5.14331579208374,"206":-0.671327531337738,"207":0.49158620834350586,"208":-0.00804061908274889,"209":1.599128007888794,"210":-2.0513856410980225,"211":-1.3111484050750732,"212":-0.9860509037971497,"213":-0.9655946493148804,"214":1.7895153760910034,"215":-1.750016450881958,"216":0.5065789222717285,"217":-0.9145897626876831,"218":2.2807416915893555,"219":1.5397676229476929,"220":0.3683626353740692,"221":-2.734044313430786,"222":1.4344185590744019,"223":2.3428852558135986,"224":4.364517688751221,"225":1.9528462886810303,"226":-0.740912914276123,"227":2.2938568592071533,"228":-2.0643556118011475,"229":1.373159646987915,"230":0.5215224623680115,"231":0.6306709051132202,"232":0.7416699528694153,"233":-2.4040095806121826,"234":4.410190105438232,"235":-1.1004167795181274,"236":0.21831990778446198,"237":3.1900992393493652,"238":0.4429234266281128,"239":-0.876846432685852,"240":0.18529409170150757,"241":-0.29839232563972473,"242":-0.9223805665969849,"243":-1.3676365613937378,"244":1.6608011722564697,"245":1.201472520828247,"246":0.9946594834327698,"247":-0.01292570773512125,"248":0.7864687442779541,"249":0.6068999767303467,"250":0.3925246596336365,"251":3.84822940826416,"252":-0.2952040135860443,"253":-1.989923357963562,"254":0.017711948603391647,"255":-1.2789825201034546,"256":0.07832453399896622,"257":1.5621156692504883,"258":-1.137046217918396,"259":-1.159097671508789,"260":1.0772244930267334,"261":-1.7018048763275146,"262":2.4875869750976562,"263":1.6166276931762695,"264":-2.972247362136841,"265":1.7034611701965332,"266":-0.7374250888824463,"267":-0.301334023475647,"268":0.16617773473262787,"269":-0.11477037519216537,"270":-0.2939956486225128,"271":-0.9495140314102173,"272":1.581992745399475,"273":5.652464389801025,"274":0.15396566689014435,"275":-2.3461639881134033,"276":0.7834436893463135,"277":0.7966185808181763,"278":-1.0337244272232056,"279":2.35327410697937,"280":-0.27901798486709595,"281":-2.9054787158966064,"282":0.39907747507095337,"283":-0.7651684880256653,"284":1.995041847229004,"285":0.5186295509338379,"286":-2.590818166732788,"287":1.9102331399917603,"288":-0.5659664869308472,"289":2.006314516067505,"290":-0.8615257740020752,"291":-1.0628827810287476,"292":1.9575152397155762,"293":-2.70890474319458,"294":-0.21191968023777008,"295":-0.005558020900934935,"296":-0.334952175617218,"297":1.8913594484329224,"298":0.9791578054428101,"299":-0.11130854487419128,"300":0.7336928248405457,"301":2.7961316108703613,"302":-1.3858846426010132,"303":0.749579906463623,"304":0.9348785877227783,"305":2.051537275314331,"306":0.7950292229652405,"307":1.8575540781021118,"308":-0.6225425601005554,"309":-0.10079152137041092,"310":2.1473824977874756,"311":1.1282035112380981,"312":-0.10757054388523102,"313":3.366926670074463,"314":-0.18207427859306335,"315":-0.07357991486787796,"316":-0.5451589822769165,"317":1.517734408378601,"318":3.3744688034057617,"319":-1.1159934997558594,"320":1.0059679746627808,"321":0.06394797563552856,"322":-0.0603298656642437,"323":-1.2588865756988525,"324":3.7665982246398926,"325":2.318542003631592,"326":-3.0706629753112793,"327":0.34128081798553467,